{"learner":{"attributes":{"best_iteration":"499","best_ntree_limit":"500"},"feature_names":[],"feature_types":[],"gradient_booster":{"model":{"gbtree_model_param":{"num_parallel_tree":"1","num_trees":"1000","size_leaf_vector":"0"},"tree_info":[0,1,0,1,0,1,0,1,0,1,0,1,0,1,0,1,0,1,0,1,0,1,0,1,0,1,0,1,0,1,0,1,0,1,0,1,0,1,0,1,0,1,0,1,0,1,0,1,0,1,0,1,0,1,0,1,0,1,0,1,0,1,0,1,0,1,0,1,0,1,0,1,0,1,0,1,0,1,0,1,0,1,0,1,0,1,0,1,0,1,0,1,0,1,0,1,0,1,0,1,0,1,0,1,0,1,0,1,0,1,0,1,0,1,0,1,0,1,0,1,0,1,0,1,0,1,0,1,0,1,0,1,0,1,0,1,0,1,0,1,0,1,0,1,0,1,0,1,0,1,0,1,0,1,0,1,0,1,0,1,0,1,0,1,0,1,0,1,0,1,0,1,0,1,0,1,0,1,0,1,0,1,0,1,0,1,0,1,0,1,0,1,0,1,0,1,0,1,0,1,0,1,0,1,0,1,0,1,0,1,0,1,0,1,0,1,0,1,0,1,0,1,0,1,0,1,0,1,0,1,0,1,0,1,0,1,0,1,0,1,0,1,0,1,0,1,0,1,0,1,0,1,0,1,0,1,0,1,0,1,0,1,0,1,0,1,0,1,0,1,0,1,0,1,0,1,0,1,0,1,0,1,0,1,0,1,0,1,0,1,0,1,0,1,0,1,0,1,0,1,0,1,0,1,0,1,0,1,0,1,0,1,0,1,0,1,0,1,0,1,0,1,0,1,0,1,0,1,0,1,0,1,0,1,0,1,0,1,0,1,0,1,0,1,0,1,0,1,0,1,0,1,0,1,0,1,0,1,0,1,0,1,0,1,0,1,0,1,0,1,0,1,0,1,0,1,0,1,0,1,0,1,0,1,0,1,0,1,0,1,0,1,0,1,0,1,0,1,0,1,0,1,0,1,0,1,0,1,0,1,0,1,0,1,0,1,0,1,0,1,0,1,0,1,0,1,0,1,0,1,0,1,0,1,0,1,0,1,0,1,0,1,0,1,0,1,0,1,0,1,0,1,0,1,0,1,0,1,0,1,0,1,0,1,0,1,0,1,0,1,0,1,0,1,0,1,0,1,0,1,0,1,0,1,0,1,0,1,0,1,0,1,0,1,0,1,0,1,0,1,0,1,0,1,0,1,0,1,0,1,0,1,0,1,0,1,0,1,0,1,0,1,0,1,0,1,0,1,0,1,0,1,0,1,0,1,0,1,0,1,0,1,0,1,0,1,0,1,0,1,0,1,0,1,0,1,0,1,0,1,0,1,0,1,0,1,0,1,0,1,0,1,0,1,0,1,0,1,0,1,0,1,0,1,0,1,0,1,0,1,0,1,0,1,0,1,0,1,0,1,0,1,0,1,0,1,0,1,0,1,0,1,0,1,0,1,0,1,0,1,0,1,0,1,0,1,0,1,0,1,0,1,0,1,0,1,0,1,0,1,0,1,0,1,0,1,0,1,0,1,0,1,0,1,0,1,0,1,0,1,0,1,0,1,0,1,0,1,0,1,0,1,0,1,0,1,0,1,0,1,0,1,0,1,0,1,0,1,0,1,0,1,0,1,0,1,0,1,0,1,0,1,0,1,0,1,0,1,0,1,0,1,0,1,0,1,0,1,0,1,0,1,0,1,0,1,0,1,0,1,0,1,0,1,0,1,0,1,0,1,0,1,0,1,0,1,0,1,0,1,0,1,0,1,0,1,0,1,0,1,0,1,0,1,0,1,0,1,0,1,0,1,0,1,0,1,0,1,0,1,0,1,0,1,0,1,0,1,0,1,0,1,0,1,0,1,0,1,0,1,0,1,0,1,0,1,0,1,0,1,0,1,0,1,0,1,0,1,0,1,0,1,0,1,0,1,0,1,0,1,0,1,0,1,0,1,0,1,0,1,0,1,0,1,0,1,0,1,0,1,0,1,0,1,0,1,0,1,0,1,0,1,0,1,0,1,0,1,0,1,0,1,0,1,0,1,0,1,0,1,0,1,0,1,0,1,0,1,0,1,0,1,0,1,0,1,0,1,0,1,0,1,0,1,0,1,0,1,0,1,0,1,0,1,0,1,0,1,0,1,0,1,0,1,0,1,0,1,0,1,0,1,0,1,0,1,0,1,0,1,0,1,0,1,0,1,0,1,0,1,0,1,0,1,0,1,0,1,0,1,0,1,0,1,0,1,0,1,0,1,0,1,0,1,0,1,0,1,0,1,0,1,0,1,0,1,0,1,0,1,0,1,0,1,0,1,0,1,0,1],"trees":[{"base_weights":[-1.50963E-1,1.1913978E-1,-3.1061664E-1,-4.449838E-2,3.0458716E-1,-5.770029E-2,-4.2213264E-1],"categories":[],"categories_nodes":[],"categories_segments":[],"categories_sizes":[],"default_left":[1,1,1,0,0,0,0],"id":0,"left_children":[1,3,5,-1,-1,-1,-1],"loss_changes":[2.698354E2,7.056862E1,1.1088873E2,0E0,0E0,0E0,0E0],"parents":[2147483647,0,0,1,1,2,2],"right_children":[2,4,6,-1,-1,-1,-1],"split_conditions":[4.595E-1,5.1750004E-1,8.5E0,-4.449838E-4,3.0458714E-3,-5.770029E-4,-4.221326E-3],"split_indices":[3,55,103,0,0,0,0],"split_type":[0,0,0,0,0,0,0],"sum_hessian":[6.2555E3,2.324E3,3.9315E3,1.235E3,1.089E3,1.2035E3,2.728E3],"tree_param":{"num_deleted":"0","num_feature":"106","num_nodes":"7","size_leaf_vector":"0"}},{"base_weights":[1.50963E-1,-1.1913978E-1,3.1061664E-1,4.449838E-2,-3.0458716E-1,5.770029E-2,4.2213264E-1],"categories":[],"categories_nodes":[],"categories_segments":[],"categories_sizes":[],"default_left":[1,1,1,0,0,0,0],"id":1,"left_children":[1,3,5,-1,-1,-1,-1],"loss_changes":[2.698354E2,7.056862E1,1.1088873E2,0E0,0E0,0E0,0E0],"parents":[2147483647,0,0,1,1,2,2],"right_children":[2,4,6,-1,-1,-1,-1],"split_conditions":[4.595E-1,5.1750004E-1,8.5E0,4.449838E-4,-3.0458714E-3,5.770029E-4,4.221326E-3],"split_indices":[3,55,103,0,0,0,0],"split_type":[0,0,0,0,0,0,0],"sum_hessian":[6.2555E3,2.324E3,3.9315E3,1.235E3,1.089E3,1.2035E3,2.728E3],"tree_param":{"num_deleted":"0","num_feature":"106","num_nodes":"7","size_leaf_vector":"0"}},{"base_weights":[-1.4945515E-1,1.1795002E-1,-3.0751556E-1,-4.405374E-2,3.0154684E-1,-1.2896526E-1,-4.6334183E-1],"categories":[],"categories_nodes":[],"categories_segments":[],"categories_sizes":[],"default_left":[1,1,1,0,0,0,0],"id":2,"left_children":[1,3,5,-1,-1,-1,-1],"loss_changes":[2.6447205E2,6.916632E1,1.0935217E2,0E0,0E0,0E0,0E0],"parents":[2147483647,0,0,1,1,2,2],"right_children":[2,4,6,-1,-1,-1,-1],"split_conditions":[4.595E-1,5.1750004E-1,1.15E1,-4.405374E-4,3.0154684E-3,-1.2896525E-3,-4.6334183E-3],"split_indices":[3,55,80,0,0,0,0],"split_type":[0,0,0,0,0,0,0],"sum_hessian":[6.2554404E3,2.3239897E3,3.931451E3,1.2349998E3,1.0889899E3,1.8329877E3,2.0984631E3],"tree_param":{"num_deleted":"0","num_feature":"106","num_nodes":"7","size_leaf_vector":"0"}},{"base_weights":[1.4945513E-1,-1.1795008E-1,3.0751556E-1,4.405374E-2,-3.0154696E-1,1.2896527E-1,4.6334183E-1],"categories":[],"categories_nodes":[],"categories_segments":[],"categories_sizes":[],"default_left":[1,1,1,0,0,0,0],"id":3,"left_children":[1,3,5,-1,-1,-1,-1],"loss_changes":[2.644721E2,6.916638E1,1.0935214E2,0E0,0E0,0E0,0E0],"parents":[2147483647,0,0,1,1,2,2],"right_children":[2,4,6,-1,-1,-1,-1],"split_conditions":[4.595E-1,5.1750004E-1,1.15E1,4.405374E-4,-3.0154695E-3,1.2896527E-3,4.6334183E-3],"split_indices":[3,55,80,0,0,0,0],"split_type":[0,0,0,0,0,0,0],"sum_hessian":[6.2554404E3,2.3239897E3,3.931451E3,1.2349998E3,1.0889899E3,1.8329878E3,2.0984631E3],"tree_param":{"num_deleted":"0","num_feature":"106","num_nodes":"7","size_leaf_vector":"0"}},{"base_weights":[-1.4796513E-1,1.1677321E-1,-3.0445263E-1,-4.3613646E-2,2.9854247E-1,-5.57383E-2,-4.1412306E-1],"categories":[],"categories_nodes":[],"categories_segments":[],"categories_sizes":[],"default_left":[1,1,1,0,0,0,0],"id":4,"left_children":[1,3,5,-1,-1,-1,-1],"loss_changes":[2.5922186E2,6.779349E1,1.0723709E2,0E0,0E0,0E0,0E0],"parents":[2147483647,0,0,1,1,2,2],"right_children":[2,4,6,-1,-1,-1,-1],"split_conditions":[4.595E-1,5.1750004E-1,8.5E0,-4.3613644E-4,2.9854246E-3,-5.57383E-4,-4.1412306E-3],"split_indices":[3,55,103,0,0,0,0],"split_type":[0,0,0,0,0,0,0],"sum_hessian":[6.255272E3,2.323959E3,3.9313132E3,1.234999E3,1.08896E3,1.203495E3,2.727818E3],"tree_param":{"num_deleted":"0","num_feature":"106","num_nodes":"7","size_leaf_vector":"0"}},{"base_weights":[1.4796513E-1,-1.1677323E-1,3.0445266E-1,4.3613527E-2,-2.9854238E-1,5.5738214E-2,4.1412315E-1],"categories":[],"categories_nodes":[],"categories_segments":[],"categories_sizes":[],"default_left":[1,1,1,0,0,0,0],"id":5,"left_children":[1,3,5,-1,-1,-1,-1],"loss_changes":[2.5922192E2,6.7793396E1,1.0723718E2,0E0,0E0,0E0,0E0],"parents":[2147483647,0,0,1,1,2,2],"right_children":[2,4,6,-1,-1,-1,-1],"split_conditions":[4.595E-1,5.1750004E-1,8.5E0,4.3613525E-4,-2.9854237E-3,5.573821E-4,4.1412315E-3],"split_indices":[3,55,103,0,0,0,0],"split_type":[0,0,0,0,0,0,0],"sum_hessian":[6.255272E3,2.3239592E3,3.931313E3,1.234999E3,1.0889601E3,1.203495E3,2.727818E3],"tree_param":{"num_deleted":"0","num_feature":"106","num_nodes":"7","size_leaf_vector":"0"}},{"base_weights":[-1.4649248E-1,1.790406E-1,-2.7140334E-1,-4.8020087E-2,3.123992E-1,-9.130302E-2,-4.2663735E-1],"categories":[],"categories_nodes":[],"categories_segments":[],"categories_sizes":[],"default_left":[1,1,1,0,0,0,0],"id":6,"left_children":[1,3,5,-1,-1,-1,-1],"loss_changes":[2.5443352E2,5.2564568E1,1.26373535E2,0E0,0E0,0E0,0E0],"parents":[2147483647,0,0,1,1,2,2],"right_children":[2,4,6,-1,-1,-1,-1],"split_conditions":[-2.45E0,-1.3499999E0,1.15E1,-4.8020086E-4,3.1239921E-3,-9.130302E-4,-4.2663733E-3],"split_indices":[25,77,80,0,0,0,0],"split_type":[0,0,0,0,0,0,0],"sum_hessian":[6.25499E3,1.7344266E3,4.5205635E3,6.4199133E2,1.0924354E3,2.0934087E3,2.4271548E3],"tree_param":{"num_deleted":"0","num_feature":"106","num_nodes":"7","size_leaf_vector":"0"}},{"base_weights":[1.4649251E-1,-1.7904057E-1,2.7140334E-1,4.802009E-2,-3.1239912E-1,9.130305E-2,4.2663735E-1],"categories":[],"categories_nodes":[],"categories_segments":[],"categories_sizes":[],"default_left":[1,1,1,0,0,0,0],"id":7,"left_children":[1,3,5,-1,-1,-1,-1],"loss_changes":[2.5443349E2,5.2564556E1,1.26373505E2,0E0,0E0,0E0,0E0],"parents":[2147483647,0,0,1,1,2,2],"right_children":[2,4,6,-1,-1,-1,-1],"split_conditions":[-2.45E0,-1.3499999E0,1.15E1,4.802009E-4,-3.1239912E-3,9.1303047E-4,4.2663733E-3],"split_indices":[25,77,80,0,0,0,0],"split_type":[0,0,0,0,0,0,0],"sum_hessian":[6.25499E3,1.7344268E3,4.5205635E3,6.4199133E2,1.0924354E3,2.093409E3,2.4271548E3],"tree_param":{"num_deleted":"0","num_feature":"106","num_nodes":"7","size_leaf_vector":"0"}},{"base_weights":[-1.4503576E-1,-3.481942E-1,5.2613154E-2,-1.1958872E-1,-4.5141327E-1,-1.897023E-1,1.9024256E-1],"categories":[],"categories_nodes":[],"categories_segments":[],"categories_sizes":[],"default_left":[1,1,1,0,0,0,0],"id":8,"left_children":[1,3,5,-1,-1,-1,-1],"loss_changes":[2.5120828E2,7.2740234E1,1.05811195E2,0E0,0E0,0E0,0E0],"parents":[2147483647,0,0,1,1,2,2],"right_children":[2,4,6,-1,-1,-1,-1],"split_conditions":[1.45E1,8.5E0,-1.3499999E0,-1.1958871E-3,-4.5141326E-3,-1.897023E-3,1.9024255E-3],"split_indices":[51,103,77,0,0,0,0],"split_type":[0,0,0,0,0,0,0],"sum_hessian":[6.2546577E3,3.0839648E3,3.1706929E3,9.599855E2,2.1239792E3,1.1483995E3,2.0222933E3],"tree_param":{"num_deleted":"0","num_feature":"106","num_nodes":"7","size_leaf_vector":"0"}},{"base_weights":[1.4503576E-1,3.481942E-1,-5.2613188E-2,1.195888E-1,4.5141324E-1,1.8970227E-1,-1.902426E-1],"categories":[],"categories_nodes":[],"categories_segments":[],"categories_sizes":[],"default_left":[1,1,1,0,0,0,0],"id":9,"left_children":[1,3,5,-1,-1,-1,-1],"loss_changes":[2.5120836E2,7.274014E1,1.0581121E2,0E0,0E0,0E0,0E0],"parents":[2147483647,0,0,1,1,2,2],"right_children":[2,4,6,-1,-1,-1,-1],"split_conditions":[1.45E1,8.5E0,-1.3499999E0,1.1958879E-3,4.514132E-3,1.8970227E-3,-1.902426E-3],"split_indices":[51,103,77,0,0,0,0],"split_type":[0,0,0,0,0,0,0],"sum_hessian":[6.2546577E3,3.0839646E3,3.1706929E3,9.599854E2,2.1239792E3,1.1483995E3,2.0222933E3],"tree_param":{"num_deleted":"0","num_feature":"106","num_nodes":"7","size_leaf_vector":"0"}},{"base_weights":[-1.4359571E-1,-2.7277774E-1,1.6232155E-1,-1.1805943E-1,-4.467237E-1,-9.311403E-3,3.2835007E-1],"categories":[],"categories_nodes":[],"categories_segments":[],"categories_sizes":[],"default_left":[1,1,1,0,0,0,0],"id":10,"left_children":[1,3,5,-1,-1,-1,-1],"loss_changes":[2.4724574E2,1.18320496E2,5.2943623E1,0E0,0E0,0E0,0E0],"parents":[2147483647,0,0,1,1,2,2],"right_children":[2,4,6,-1,-1,-1,-1],"split_conditions":[1.95E1,1.35E1,-5E-2,-1.1805942E-3,-4.467237E-3,-9.311403E-5,3.2835007E-3],"split_indices":[28,80,77,0,0,0,0],"split_type":[0,0,0,0,0,0,0],"sum_hessian":[6.2542534E3,4.397427E3,1.8568269E3,2.3282317E3,2.0691948E3,9.134679E2,9.43359E2],"tree_param":{"num_deleted":"0","num_feature":"106","num_nodes":"7","size_leaf_vector":"0"}},{"base_weights":[1.435957E-1,2.7277774E-1,-1.6232155E-1,1.18059434E-1,4.467237E-1,9.311404E-3,-3.2835007E-1],"categories":[],"categories_nodes":[],"categories_segments":[],"categories_sizes":[],"default_left":[1,1,1,0,0,0,0],"id":11,"left_children":[1,3,5,-1,-1,-1,-1],"loss_changes":[2.4724576E2,1.18320435E2,5.2943626E1,0E0,0E0,0E0,0E0],"parents":[2147483647,0,0,1,1,2,2],"right_children":[2,4,6,-1,-1,-1,-1],"split_conditions":[1.95E1,1.35E1,-5E-2,1.1805943E-3,4.467237E-3,9.311404E-5,-3.2835007E-3],"split_indices":[28,80,77,0,0,0,0],"split_type":[0,0,0,0,0,0,0],"sum_hessian":[6.2542534E3,4.3974263E3,1.8568269E3,2.3282317E3,2.0691948E3,9.134679E2,9.4335895E2],"tree_param":{"num_deleted":"0","num_feature":"106","num_nodes":"7","size_leaf_vector":"0"}},{"base_weights":[-1.4217186E-1,-3.421409E-1,5.234519E-2,-1.1722147E-1,-4.4372505E-1,-1.8597801E-1,1.8770365E-1],"categories":[],"categories_nodes":[],"categories_segments":[],"categories_sizes":[],"default_left":[1,1,1,0,0,0,0],"id":12,"left_children":[1,3,5,-1,-1,-1,-1],"loss_changes":[2.4331107E2,7.041846E1,1.0234326E2,0E0,0E0,0E0,0E0],"parents":[2147483647,0,0,1,1,2,2],"right_children":[2,4,6,-1,-1,-1,-1],"split_conditions":[1.45E1,8.5E0,-1.3499999E0,-1.1722146E-3,-4.4372506E-3,-1.85978E-3,1.8770365E-3],"split_indices":[51,103,77,0,0,0,0],"split_type":[0,0,0,0,0,0,0],"sum_hessian":[6.253743E3,3.0832825E3,3.170461E3,9.599631E2,2.1233193E3,1.1482985E3,2.0221625E3],"tree_param":{"num_deleted":"0","num_feature":"106","num_nodes":"7","size_leaf_vector":"0"}},{"base_weights":[1.4217186E-1,3.421409E-1,-5.234518E-2,1.172215E-1,4.4372505E-1,1.8597804E-1,-1.8770364E-1],"categories":[],"categories_nodes":[],"categories_segments":[],"categories_sizes":[],"default_left":[1,1,1,0,0,0,0],"id":13,"left_children":[1,3,5,-1,-1,-1,-1],"loss_changes":[2.4331107E2,7.0418396E1,1.0234327E2,0E0,0E0,0E0,0E0],"parents":[2147483647,0,0,1,1,2,2],"right_children":[2,4,6,-1,-1,-1,-1],"split_conditions":[1.45E1,8.5E0,-1.3499999E0,1.172215E-3,4.4372506E-3,1.8597804E-3,-1.8770363E-3],"split_indices":[51,103,77,0,0,0,0],"split_type":[0,0,0,0,0,0,0],"sum_hessian":[6.253743E3,3.0832825E3,3.170461E3,9.5996313E2,2.1233193E3,1.1482985E3,2.0221625E3],"tree_param":{"num_deleted":"0","num_feature":"106","num_nodes":"7","size_leaf_vector":"0"}},{"base_weights":[-1.4076433E-1,1.7536213E-1,-2.6209217E-1,-4.3038465E-2,3.0364943E-1,-8.739855E-2,-4.1273502E-1],"categories":[],"categories_nodes":[],"categories_segments":[],"categories_sizes":[],"default_left":[1,1,1,0,0,0,0],"id":14,"left_children":[1,3,5,-1,-1,-1,-1],"loss_changes":[2.3992383E2,4.862963E1,1.18913055E2,0E0,0E0,0E0,0E0],"parents":[2147483647,0,0,1,1,2,2],"right_children":[2,4,6,-1,-1,-1,-1],"split_conditions":[-2.45E0,-1.3499999E0,1.15E1,-4.3038465E-4,3.0364941E-3,-8.7398547E-4,-4.12735E-3],"split_indices":[25,77,80,0,0,0,0],"split_type":[0,0,0,0,0,0,0],"sum_hessian":[6.253159E3,1.7341887E3,4.5189707E3,6.4195966E2,1.092229E3,2.0931824E3,2.425788E3],"tree_param":{"num_deleted":"0","num_feature":"106","num_nodes":"7","size_leaf_vector":"0"}},{"base_weights":[1.4076434E-1,-1.7536213E-1,2.620922E-1,4.303846E-2,-3.0364943E-1,8.7398596E-2,4.1273502E-1],"categories":[],"categories_nodes":[],"categories_segments":[],"categories_sizes":[],"default_left":[1,1,1,0,0,0,0],"id":15,"left_children":[1,3,5,-1,-1,-1,-1],"loss_changes":[2.3992389E2,4.8629627E1,1.18912964E2,0E0,0E0,0E0,0E0],"parents":[2147483647,0,0,1,1,2,2],"right_children":[2,4,6,-1,-1,-1,-1],"split_conditions":[-2.45E0,-1.3499999E0,1.15E1,4.303846E-4,-3.0364941E-3,8.7398593E-4,4.12735E-3],"split_indices":[25,77,80,0,0,0,0],"split_type":[0,0,0,0,0,0,0],"sum_hessian":[6.253159E3,1.7341887E3,4.51897E3,6.4195966E2,1.092229E3,2.0931824E3,2.425788E3],"tree_param":{"num_deleted":"0","num_feature":"106","num_nodes":"7","size_leaf_vector":"0"}},{"base_weights":[-1.3937235E-1,1.13350615E-1,-2.8881505E-1,-1.9859622E-1,1.989365E-1,-5.157832E-1,-1.7891334E-1],"categories":[],"categories_nodes":[],"categories_segments":[],"categories_sizes":[],"default_left":[1,1,1,0,0,0,0],"id":16,"left_children":[1,3,5,-1,-1,-1,-1],"loss_changes":[2.3621172E2,6.2099037E1,9.7938385E1,0E0,0E0,0E0,0E0],"parents":[2147483647,0,0,1,1,2,2],"right_children":[2,4,6,-1,-1,-1,-1],"split_conditions":[4.595E-1,3.585E-1,-1.45E0,-1.9859623E-3,1.989365E-3,-5.1578316E-3,-1.7891334E-3],"split_indices":[3,55,77,0,0,0,0],"split_type":[0,0,0,0,0,0,0],"sum_hessian":[6.2524805E3,2.3234795E3,3.929001E3,4.9994388E2,1.8235356E3,1.2806075E3,2.6483936E3],"tree_param":{"num_deleted":"0","num_feature":"106","num_nodes":"7","size_leaf_vector":"0"}},{"base_weights":[1.3937235E-1,-1.1335061E-1,2.8881505E-1,1.9859624E-1,-1.989365E-1,5.157832E-1,1.7891335E-1],"categories":[],"categories_nodes":[],"categories_segments":[],"categories_sizes":[],"default_left":[1,1,1,0,0,0,0],"id":17,"left_children":[1,3,5,-1,-1,-1,-1],"loss_changes":[2.3621172E2,6.2099045E1,9.7938385E1,0E0,0E0,0E0,0E0],"parents":[2147483647,0,0,1,1,2,2],"right_children":[2,4,6,-1,-1,-1,-1],"split_conditions":[4.595E-1,3.585E-1,-1.45E0,1.9859623E-3,-1.989365E-3,5.1578316E-3,1.7891335E-3],"split_indices":[3,55,77,0,0,0,0],"split_type":[0,0,0,0,0,0,0],"sum_hessian":[6.2524805E3,2.3234795E3,3.929001E3,4.9994388E2,1.8235356E3,1.2806074E3,2.6483936E3],"tree_param":{"num_deleted":"0","num_feature":"106","num_nodes":"7","size_leaf_vector":"0"}},{"base_weights":[-1.3799612E-1,-3.335372E-1,5.2155953E-2,-1.1341258E-1,-4.3301556E-1,-1.8053964E-1,1.8430829E-1],"categories":[],"categories_nodes":[],"categories_segments":[],"categories_sizes":[],"default_left":[1,1,1,0,0,0,0],"id":18,"left_children":[1,3,5,-1,-1,-1,-1],"loss_changes":[2.3251044E2,6.745749E1,9.754311E1,0E0,0E0,0E0,0E0],"parents":[2147483647,0,0,1,1,2,2],"right_children":[2,4,6,-1,-1,-1,-1],"split_conditions":[1.45E1,8.5E0,-1.3499999E0,-1.1341257E-3,-4.3301554E-3,-1.8053963E-3,1.8430828E-3],"split_indices":[51,103,77,0,0,0,0],"split_type":[0,0,0,0,0,0,0],"sum_hessian":[6.251748E3,3.0818267E3,3.1699211E3,9.599034E2,2.1219233E3,1.1480513E3,2.02187E3],"tree_param":{"num_deleted":"0","num_feature":"106","num_nodes":"7","size_leaf_vector":"0"}},{"base_weights":[1.3799609E-1,3.335372E-1,-5.215598E-2,1.1341256E-1,4.3301556E-1,1.8053962E-1,-1.8430832E-1],"categories":[],"categories_nodes":[],"categories_segments":[],"categories_sizes":[],"default_left":[1,1,1,0,0,0,0],"id":19,"left_children":[1,3,5,-1,-1,-1,-1],"loss_changes":[2.3251047E2,6.745749E1,9.754312E1,0E0,0E0,0E0,0E0],"parents":[2147483647,0,0,1,1,2,2],"right_children":[2,4,6,-1,-1,-1,-1],"split_conditions":[1.45E1,8.5E0,-1.3499999E0,1.1341255E-3,4.3301554E-3,1.8053962E-3,-1.8430832E-3],"split_indices":[51,103,77,0,0,0,0],"split_type":[0,0,0,0,0,0,0],"sum_hessian":[6.251748E3,3.0818267E3,3.1699211E3,9.599033E2,2.1219233E3,1.1480513E3,2.02187E3],"tree_param":{"num_deleted":"0","num_feature":"106","num_nodes":"7","size_leaf_vector":"0"}},{"base_weights":[-1.3663532E-1,-2.6111895E-1,1.5803511E-1,-1.11998394E-1,-4.289168E-1,-7.057047E-3,3.1777772E-1],"categories":[],"categories_nodes":[],"categories_segments":[],"categories_sizes":[],"default_left":[1,1,1,0,0,0,0],"id":20,"left_children":[1,3,5,-1,-1,-1,-1],"loss_changes":[2.2937204E2,1.0993802E2,4.8985195E1,0E0,0E0,0E0,0E0],"parents":[2147483647,0,0,1,1,2,2],"right_children":[2,4,6,-1,-1,-1,-1],"split_conditions":[1.95E1,1.35E1,-5E-2,-1.119984E-3,-4.289168E-3,-7.0570466E-5,3.1777772E-3],"split_indices":[28,80,77,0,0,0,0],"split_type":[0,0,0,0,0,0,0],"sum_hessian":[6.250921E3,4.3945537E3,1.8563671E3,2.327654E3,2.0668994E3,9.133678E2,9.429993E2],"tree_param":{"num_deleted":"0","num_feature":"106","num_nodes":"7","size_leaf_vector":"0"}},{"base_weights":[1.3663533E-1,2.6111898E-1,-1.5803513E-1,1.1199839E-1,4.289169E-1,7.0570223E-3,-3.1777772E-1],"categories":[],"categories_nodes":[],"categories_segments":[],"categories_sizes":[],"default_left":[1,1,1,0,0,0,0],"id":21,"left_children":[1,3,5,-1,-1,-1,-1],"loss_changes":[2.293721E2,1.0993805E2,4.898519E1,0E0,0E0,0E0,0E0],"parents":[2147483647,0,0,1,1,2,2],"right_children":[2,4,6,-1,-1,-1,-1],"split_conditions":[1.95E1,1.35E1,-5E-2,1.1199838E-3,4.289169E-3,7.057022E-5,-3.1777772E-3],"split_indices":[28,80,77,0,0,0,0],"split_type":[0,0,0,0,0,0,0],"sum_hessian":[6.250921E3,4.3945537E3,1.8563671E3,2.3276543E3,2.0668994E3,9.133678E2,9.429993E2],"tree_param":{"num_deleted":"0","num_feature":"106","num_nodes":"7","size_leaf_vector":"0"}},{"base_weights":[-1.3528918E-1,1.7136052E-1,-2.5302136E-1,-3.9559178E-2,2.952837E-1,-8.3424255E-2,-3.993891E-1],"categories":[],"categories_nodes":[],"categories_segments":[],"categories_sizes":[],"default_left":[1,1,1,0,0,0,0],"id":22,"left_children":[1,3,5,-1,-1,-1,-1],"loss_changes":[2.257208E2,4.5354427E1,1.12101074E2,0E0,0E0,0E0,0E0],"parents":[2147483647,0,0,1,1,2,2],"right_children":[2,4,6,-1,-1,-1,-1],"split_conditions":[-2.45E0,-1.3499999E0,1.15E1,-3.9559178E-4,2.952837E-3,-8.3424256E-4,-3.9938907E-3],"split_indices":[25,77,80,0,0,0,0],"split_type":[0,0,0,0,0,0,0],"sum_hessian":[6.250013E3,1.7337548E3,4.516259E3,6.419033E2,1.0918513E3,2.0928416E3,2.423417E3],"tree_param":{"num_deleted":"0","num_feature":"106","num_nodes":"7","size_leaf_vector":"0"}},{"base_weights":[1.3528918E-1,-1.7136045E-1,2.5302133E-1,3.955924E-2,-2.9528362E-1,8.342423E-2,3.993891E-1],"categories":[],"categories_nodes":[],"categories_segments":[],"categories_sizes":[],"default_left":[1,1,1,0,0,0,0],"id":23,"left_children":[1,3,5,-1,-1,-1,-1],"loss_changes":[2.257207E2,4.5354424E1,1.1210104E2,0E0,0E0,0E0,0E0],"parents":[2147483647,0,0,1,1,2,2],"right_children":[2,4,6,-1,-1,-1,-1],"split_conditions":[-2.45E0,-1.3499999E0,1.15E1,3.9559242E-4,-2.952836E-3,8.342423E-4,3.9938907E-3],"split_indices":[25,77,80,0,0,0,0],"split_type":[0,0,0,0,0,0,0],"sum_hessian":[6.250013E3,1.7337546E3,4.516259E3,6.419033E2,1.0918513E3,2.0928418E3,2.423417E3],"tree_param":{"num_deleted":"0","num_feature":"106","num_nodes":"7","size_leaf_vector":"0"}},{"base_weights":[-1.3395809E-1,-3.2537776E-1,5.211242E-2,-1.10247694E-1,-4.226783E-1,-1.7507876E-1,1.8112876E-1],"categories":[],"categories_nodes":[],"categories_segments":[],"categories_sizes":[],"default_left":[1,1,1,0,0,0,0],"id":24,"left_children":[1,3,5,-1,-1,-1,-1],"loss_changes":[2.226275E2,6.444296E1,9.295334E1,0E0,0E0,0E0,0E0],"parents":[2147483647,0,0,1,1,2,2],"right_children":[2,4,6,-1,-1,-1,-1],"split_conditions":[1.45E1,8.5E0,-1.3499999E0,-1.102477E-3,-4.226783E-3,-1.7507876E-3,1.8112875E-3],"split_indices":[51,103,77,0,0,0,0],"split_type":[0,0,0,0,0,0,0],"sum_hessian":[6.2490234E3,3.0798672E3,3.169156E3,9.5983E2,2.120037E3,1.1477211E3,2.021435E3],"tree_param":{"num_deleted":"0","num_feature":"106","num_nodes":"7","size_leaf_vector":"0"}},{"base_weights":[1.3395809E-1,3.253778E-1,-5.211246E-2,1.1024778E-1,4.226783E-1,1.7507873E-1,-1.811288E-1],"categories":[],"categories_nodes":[],"categories_segments":[],"categories_sizes":[],"default_left":[1,1,1,0,0,0,0],"id":25,"left_children":[1,3,5,-1,-1,-1,-1],"loss_changes":[2.2262756E2,6.44429E1,9.2953354E1,0E0,0E0,0E0,0E0],"parents":[2147483647,0,0,1,1,2,2],"right_children":[2,4,6,-1,-1,-1,-1],"split_conditions":[1.45E1,8.5E0,-1.3499999E0,1.1024778E-3,4.226783E-3,1.7507873E-3,-1.811288E-3],"split_indices":[51,103,77,0,0,0,0],"split_type":[0,0,0,0,0,0,0],"sum_hessian":[6.249023E3,3.0798672E3,3.169156E3,9.5982996E2,2.120037E3,1.147721E3,2.021435E3],"tree_param":{"num_deleted":"0","num_feature":"106","num_nodes":"7","size_leaf_vector":"0"}},{"base_weights":[-1.3264191E-1,-2.54329E-1,1.5531331E-1,-1.5642178E-1,-4.996486E-1,-5.6104297E-3,3.1106472E-1],"categories":[],"categories_nodes":[],"categories_segments":[],"categories_sizes":[],"default_left":[1,1,1,0,0,0,0],"id":26,"left_children":[1,3,5,-1,-1,-1,-1],"loss_changes":[2.1900626E2,1.05436615E2,4.6543816E1,0E0,0E0,0E0,0E0],"parents":[2147483647,0,0,1,1,2,2],"right_children":[2,4,6,-1,-1,-1,-1],"split_conditions":[1.95E1,1.95E1,-5E-2,-1.5642177E-3,-4.996486E-3,-5.6104294E-5,3.1106472E-3],"split_indices":[28,80,77,0,0,0,0],"split_type":[0,0,0,0,0,0,0],"sum_hessian":[6.2479736E3,4.392052E3,1.8559218E3,3.1403672E3,1.2516848E3,9.1327844E2,9.426434E2],"tree_param":{"num_deleted":"0","num_feature":"106","num_nodes":"7","size_leaf_vector":"0"}},{"base_weights":[1.326419E-1,2.5432897E-1,-1.553133E-1,1.5642175E-1,4.9964854E-1,5.610466E-3,-3.1106472E-1],"categories":[],"categories_nodes":[],"categories_segments":[],"categories_sizes":[],"default_left":[1,1,1,0,0,0,0],"id":27,"left_children":[1,3,5,-1,-1,-1,-1],"loss_changes":[2.190062E2,1.05436615E2,4.654383E1,0E0,0E0,0E0,0E0],"parents":[2147483647,0,0,1,1,2,2],"right_children":[2,4,6,-1,-1,-1,-1],"split_conditions":[1.95E1,1.95E1,-5E-2,1.5642175E-3,4.996485E-3,5.6104658E-5,-3.1106472E-3],"split_indices":[28,80,77,0,0,0,0],"split_type":[0,0,0,0,0,0,0],"sum_hessian":[6.2479736E3,4.3920522E3,1.8559218E3,3.1403672E3,1.2516848E3,9.132784E2,9.426433E2],"tree_param":{"num_deleted":"0","num_feature":"106","num_nodes":"7","size_leaf_vector":"0"}},{"base_weights":[-1.3133891E-1,-3.1982976E-1,5.182172E-2,-2.4901552E-1,-6.097767E-1,-1.7161988E-1,1.786988E-1],"categories":[],"categories_nodes":[],"categories_segments":[],"categories_sizes":[],"default_left":[1,1,1,0,0,0,0],"id":28,"left_children":[1,3,5,-1,-1,-1,-1],"loss_changes":[2.157196E2,6.307321E1,8.9887985E1,0E0,0E0,0E0,0E0],"parents":[2147483647,0,0,1,1,2,2],"right_children":[2,4,6,-1,-1,-1,-1],"split_conditions":[1.45E1,2.25E1,-1.3499999E0,-2.4901552E-3,-6.0977666E-3,-1.7161987E-3,1.7869879E-3],"split_indices":[51,80,77,0,0,0,0],"split_type":[0,0,0,0,0,0,0],"sum_hessian":[6.2468975E3,3.0782847E3,3.168613E3,2.4755386E3,6.027461E2,1.1474684E3,2.0211445E3],"tree_param":{"num_deleted":"0","num_feature":"106","num_nodes":"7","size_leaf_vector":"0"}},{"base_weights":[1.3133891E-1,3.1982973E-1,-5.1821705E-2,2.4901551E-1,6.097767E-1,1.7161989E-1,-1.7869878E-1],"categories":[],"categories_nodes":[],"categories_segments":[],"categories_sizes":[],"default_left":[1,1,1,0,0,0,0],"id":29,"left_children":[1,3,5,-1,-1,-1,-1],"loss_changes":[2.157196E2,6.307321E1,8.9887985E1,0E0,0E0,0E0,0E0],"parents":[2147483647,0,0,1,1,2,2],"right_children":[2,4,6,-1,-1,-1,-1],"split_conditions":[1.45E1,2.25E1,-1.3499999E0,2.490155E-3,6.0977666E-3,1.7161989E-3,-1.7869878E-3],"split_indices":[51,80,77,0,0,0,0],"split_type":[0,0,0,0,0,0,0],"sum_hessian":[6.2468975E3,3.0782847E3,3.168613E3,2.4755386E3,6.027461E2,1.1474684E3,2.0211445E3],"tree_param":{"num_deleted":"0","num_feature":"106","num_nodes":"7","size_leaf_vector":"0"}},{"base_weights":[-1.3005076E-1,-2.2781892E-1,2.1865523E-1,-6.092113E-2,-3.708696E-1,-7.073796E-2,2.9314193E-1],"categories":[],"categories_nodes":[],"categories_segments":[],"categories_sizes":[],"default_left":[1,1,1,0,0,0,0],"id":30,"left_children":[1,3,5,-1,-1,-1,-1],"loss_changes":[2.1301665E2,1.1647113E2,2.9518234E1,0E0,0E0,0E0,0E0],"parents":[2147483647,0,0,1,1,2,2],"right_children":[2,4,6,-1,-1,-1,-1],"split_conditions":[2.35E1,1.15E1,3.595E-1,-6.092113E-4,-3.708696E-3,-7.0737954E-4,2.9314193E-3],"split_indices":[51,80,55,0,0,0,0],"split_type":[0,0,0,0,0,0,0],"sum_hessian":[6.245765E3,4.8783486E3,1.3674164E3,2.252165E3,2.6261836E3,2.7992227E2,1.0874941E3],"tree_param":{"num_deleted":"0","num_feature":"106","num_nodes":"7","size_leaf_vector":"0"}},{"base_weights":[1.3005078E-1,2.2781892E-1,-2.1865517E-1,6.0921125E-2,3.7086964E-1,7.073798E-2,-2.9314187E-1],"categories":[],"categories_nodes":[],"categories_segments":[],"categories_sizes":[],"default_left":[1,1,1,0,0,0,0],"id":31,"left_children":[1,3,5,-1,-1,-1,-1],"loss_changes":[2.1301662E2,1.164711E2,2.9518242E1,0E0,0E0,0E0,0E0],"parents":[2147483647,0,0,1,1,2,2],"right_children":[2,4,6,-1,-1,-1,-1],"split_conditions":[2.35E1,1.15E1,3.595E-1,6.092112E-4,3.7086962E-3,7.073798E-4,-2.9314186E-3],"split_indices":[51,80,55,0,0,0,0],"split_type":[0,0,0,0,0,0,0],"sum_hessian":[6.245765E3,4.8783486E3,1.3674164E3,2.252165E3,2.6261836E3,2.7992227E2,1.087494E3],"tree_param":{"num_deleted":"0","num_feature":"106","num_nodes":"7","size_leaf_vector":"0"}},{"base_weights":[-1.287749E-1,1.6669509E-1,-2.4228087E-1,-3.491569E-2,2.85201E-1,-7.862576E-2,-3.8372162E-1],"categories":[],"categories_nodes":[],"categories_segments":[],"categories_sizes":[],"default_left":[1,1,1,0,0,0,0],"id":32,"left_children":[1,3,5,-1,-1,-1,-1],"loss_changes":[2.0950284E2,4.1438263E1,1.0442572E2,0E0,0E0,0E0,0E0],"parents":[2147483647,0,0,1,1,2,2],"right_children":[2,4,6,-1,-1,-1,-1],"split_conditions":[-2.45E0,-1.3499999E0,1.15E1,-3.4915688E-4,2.85201E-3,-7.862576E-4,-3.8372162E-3],"split_indices":[25,77,80,0,0,0,0],"split_type":[0,0,0,0,0,0,0],"sum_hessian":[6.2445986E3,1.7329772E3,4.511621E3,6.418023E2,1.0911749E3,2.092284E3,2.4193374E3],"tree_param":{"num_deleted":"0","num_feature":"106","num_nodes":"7","size_leaf_vector":"0"}},{"base_weights":[1.2877488E-1,-1.6669512E-1,2.4228086E-1,3.4915633E-2,-2.85201E-1,7.862572E-2,3.8372162E-1],"categories":[],"categories_nodes":[],"categories_segments":[],"categories_sizes":[],"default_left":[1,1,1,0,0,0,0],"id":33,"left_children":[1,3,5,-1,-1,-1,-1],"loss_changes":[2.0950284E2,4.1438244E1,1.0442575E2,0E0,0E0,0E0,0E0],"parents":[2147483647,0,0,1,1,2,2],"right_children":[2,4,6,-1,-1,-1,-1],"split_conditions":[-2.45E0,-1.3499999E0,1.15E1,3.4915633E-4,-2.85201E-3,7.862572E-4,3.8372162E-3],"split_indices":[25,77,80,0,0,0,0],"split_type":[0,0,0,0,0,0,0],"sum_hessian":[6.2445986E3,1.7329773E3,4.511621E3,6.418023E2,1.0911749E3,2.092284E3,2.4193374E3],"tree_param":{"num_deleted":"0","num_feature":"106","num_nodes":"7","size_leaf_vector":"0"}},{"base_weights":[-1.2751494E-1,-3.122665E-1,5.1918365E-2,-2.4274711E-1,-5.972682E-1,-1.0244243E-1,2.2799054E-1],"categories":[],"categories_nodes":[],"categories_segments":[],"categories_sizes":[],"default_left":[1,1,1,0,0,0,0],"id":34,"left_children":[1,3,5,-1,-1,-1,-1],"loss_changes":[2.070173E2,6.081378E1,8.614116E1,0E0,0E0,0E0,0E0],"parents":[2147483647,0,0,1,1,2,2],"right_children":[2,4,6,-1,-1,-1,-1],"split_conditions":[1.45E1,2.25E1,5.5E-1,-2.427471E-3,-5.972682E-3,-1.0244242E-3,2.2799054E-3],"split_indices":[51,80,77,0,0,0,0],"split_type":[0,0,0,0,0,0,0],"sum_hessian":[6.243267E3,3.075683E3,3.167584E3,2.4740493E3,6.0163367E2,1.6880791E3,1.4795048E3],"tree_param":{"num_deleted":"0","num_feature":"106","num_nodes":"7","size_leaf_vector":"0"}},{"base_weights":[1.2751494E-1,3.1226653E-1,-5.191837E-2,2.4274714E-1,5.972682E-1,1.02442436E-1,-2.2799054E-1],"categories":[],"categories_nodes":[],"categories_segments":[],"categories_sizes":[],"default_left":[1,1,1,0,0,0,0],"id":35,"left_children":[1,3,5,-1,-1,-1,-1],"loss_changes":[2.0701733E2,6.081378E1,8.614117E1,0E0,0E0,0E0,0E0],"parents":[2147483647,0,0,1,1,2,2],"right_children":[2,4,6,-1,-1,-1,-1],"split_conditions":[1.45E1,2.25E1,5.5E-1,2.4274713E-3,5.972682E-3,1.0244243E-3,-2.2799054E-3],"split_indices":[51,80,77,0,0,0,0],"split_type":[0,0,0,0,0,0,0],"sum_hessian":[6.243267E3,3.075683E3,3.167584E3,2.4740493E3,6.0163367E2,1.6880791E3,1.4795049E3],"tree_param":{"num_deleted":"0","num_feature":"106","num_nodes":"7","size_leaf_vector":"0"}},{"base_weights":[-1.2626734E-1,-2.4376324E-1,1.5158346E-1,-1.4919525E-1,-4.811541E-1,-2.9861147E-3,3.0126563E-1],"categories":[],"categories_nodes":[],"categories_segments":[],"categories_sizes":[],"default_left":[1,1,1,0,0,0,0],"id":36,"left_children":[1,3,5,-1,-1,-1,-1],"loss_changes":[2.0384729E2,9.843619E1,4.2942154E1,0E0,0E0,0E0,0E0],"parents":[2147483647,0,0,1,1,2,2],"right_children":[2,4,6,-1,-1,-1,-1],"split_conditions":[1.95E1,1.95E1,-5E-2,-1.4919525E-3,-4.811541E-3,-2.9861147E-5,3.0126562E-3],"split_indices":[28,80,77,0,0,0,0],"split_type":[0,0,0,0,0,0,0],"sum_hessian":[6.2419785E3,4.386967E3,1.8550116E3,3.1383782E3,1.2485884E3,9.1308887E2,9.419228E2],"tree_param":{"num_deleted":"0","num_feature":"106","num_nodes":"7","size_leaf_vector":"0"}},{"base_weights":[1.2626733E-1,2.4376321E-1,-1.5158345E-1,1.4919522E-1,4.811541E-1,2.9861028E-3,-3.0126563E-1],"categories":[],"categories_nodes":[],"categories_segments":[],"categories_sizes":[],"default_left":[1,1,1,0,0,0,0],"id":37,"left_children":[1,3,5,-1,-1,-1,-1],"loss_changes":[2.038472E2,9.843625E1,4.2942142E1,0E0,0E0,0E0,0E0],"parents":[2147483647,0,0,1,1,2,2],"right_children":[2,4,6,-1,-1,-1,-1],"split_conditions":[1.95E1,1.95E1,-5E-2,1.4919522E-3,4.811541E-3,2.9861028E-5,-3.0126562E-3],"split_indices":[28,80,77,0,0,0,0],"split_type":[0,0,0,0,0,0,0],"sum_hessian":[6.2419785E3,4.386967E3,1.8550116E3,3.1383784E3,1.2485884E3,9.1308887E2,9.419228E2],"tree_param":{"num_deleted":"0","num_feature":"106","num_nodes":"7","size_leaf_vector":"0"}},{"base_weights":[-1.2503338E-1,-3.0698976E-1,5.1607758E-2,-9.976576E-2,-4.0093848E-1,-1.8980956E-1,1.613436E-1],"categories":[],"categories_nodes":[],"categories_segments":[],"categories_sizes":[],"default_left":[1,1,1,0,0,0,0],"id":38,"left_children":[1,3,5,-1,-1,-1,-1],"loss_changes":[2.0062659E2,5.9819183E1,8.395522E1,0E0,0E0,0E0,0E0],"parents":[2147483647,0,0,1,1,2,2],"right_children":[2,4,6,-1,-1,-1,-1],"split_conditions":[1.45E1,8.5E0,-2.05E0,-9.976577E-4,-4.0093847E-3,-1.8980956E-3,1.613436E-3],"split_indices":[51,103,77,0,0,0,0],"split_type":[0,0,0,0,0,0,0],"sum_hessian":[6.240586E3,3.0736797E3,3.1669065E3,9.594562E2,2.1142236E3,9.894346E2,2.177472E3],"tree_param":{"num_deleted":"0","num_feature":"106","num_nodes":"7","size_leaf_vector":"0"}},{"base_weights":[1.2503336E-1,3.0698976E-1,-5.160777E-2,9.976574E-2,4.0093848E-1,1.8980956E-1,-1.6134362E-1],"categories":[],"categories_nodes":[],"categories_segments":[],"categories_sizes":[],"default_left":[1,1,1,0,0,0,0],"id":39,"left_children":[1,3,5,-1,-1,-1,-1],"loss_changes":[2.0062653E2,5.9819183E1,8.395522E1,0E0,0E0,0E0,0E0],"parents":[2147483647,0,0,1,1,2,2],"right_children":[2,4,6,-1,-1,-1,-1],"split_conditions":[1.45E1,8.5E0,-2.05E0,9.976574E-4,4.0093847E-3,1.8980956E-3,-1.6134362E-3],"split_indices":[51,103,77,0,0,0,0],"split_type":[0,0,0,0,0,0,0],"sum_hessian":[6.240586E3,3.0736797E3,3.1669065E3,9.594561E2,2.1142236E3,9.894346E2,2.177472E3],"tree_param":{"num_deleted":"0","num_feature":"106","num_nodes":"7","size_leaf_vector":"0"}},{"base_weights":[-1.23813406E-1,-2.1824664E-1,2.1278605E-1,-5.714069E-2,-3.5655335E-1,-6.662394E-2,2.8473824E-1],"categories":[],"categories_nodes":[],"categories_segments":[],"categories_sizes":[],"default_left":[1,1,1,0,0,0,0],"id":40,"left_children":[1,3,5,-1,-1,-1,-1],"loss_changes":[1.9839594E2,1.0857088E2,2.7513988E1,0E0,0E0,0E0,0E0],"parents":[2147483647,0,0,1,1,2,2],"right_children":[2,4,6,-1,-1,-1,-1],"split_conditions":[2.35E1,1.15E1,3.595E-1,-5.7140685E-4,-3.5655333E-3,-6.662394E-4,2.8473823E-3],"split_indices":[51,80,55,0,0,0,0],"split_type":[0,0,0,0,0,0,0],"sum_hessian":[6.239118E3,4.8724893E3,1.3666289E3,2.2513857E3,2.6211035E3,2.7987433E2,1.0867546E3],"tree_param":{"num_deleted":"0","num_feature":"106","num_nodes":"7","size_leaf_vector":"0"}},{"base_weights":[1.2381339E-1,2.1824662E-1,-2.1278605E-1,5.7140682E-2,3.5655332E-1,6.662394E-2,-2.8473824E-1],"categories":[],"categories_nodes":[],"categories_segments":[],"categories_sizes":[],"default_left":[1,1,1,0,0,0,0],"id":41,"left_children":[1,3,5,-1,-1,-1,-1],"loss_changes":[1.9839592E2,1.0857085E2,2.7514004E1,0E0,0E0,0E0,0E0],"parents":[2147483647,0,0,1,1,2,2],"right_children":[2,4,6,-1,-1,-1,-1],"split_conditions":[2.35E1,1.15E1,3.595E-1,5.714068E-4,3.565533E-3,6.662394E-4,-2.8473823E-3],"split_indices":[51,80,55,0,0,0,0],"split_type":[0,0,0,0,0,0,0],"sum_hessian":[6.239118E3,4.8724893E3,1.3666289E3,2.2513857E3,2.6211035E3,2.7987433E2,1.0867545E3],"tree_param":{"num_deleted":"0","num_feature":"106","num_nodes":"7","size_leaf_vector":"0"}},{"base_weights":[-1.226046E-1,1.0715086E-1,-2.5872767E-1,-1.7889553E-1,1.8564527E-1,-3.81757E-2,-3.5642675E-1],"categories":[],"categories_nodes":[],"categories_segments":[],"categories_sizes":[],"default_left":[1,1,1,0,0,0,0],"id":42,"left_children":[1,3,5,-1,-1,-1,-1],"loss_changes":[1.9514185E2,5.2163887E1,8.440802E1,0E0,0E0,0E0,0E0],"parents":[2147483647,0,0,1,1,2,2],"right_children":[2,4,6,-1,-1,-1,-1],"split_conditions":[4.595E-1,3.585E-1,8.5E0,-1.7889553E-3,1.8564527E-3,-3.8175698E-4,-3.5642674E-3],"split_indices":[3,55,103,0,0,0,0],"split_type":[0,0,0,0,0,0,0],"sum_hessian":[6.2376562E3,2.3207646E3,3.9168916E3,4.9944107E2,1.8213236E3,1.2028634E3,2.7140283E3],"tree_param":{"num_deleted":"0","num_feature":"106","num_nodes":"7","size_leaf_vector":"0"}},{"base_weights":[1.22604586E-1,-1.0715086E-1,2.5872764E-1,1.7889553E-1,-1.8564527E-1,3.8175613E-2,3.5642675E-1],"categories":[],"categories_nodes":[],"categories_segments":[],"categories_sizes":[],"default_left":[1,1,1,0,0,0,0],"id":43,"left_children":[1,3,5,-1,-1,-1,-1],"loss_changes":[1.9514182E2,5.2163887E1,8.440808E1,0E0,0E0,0E0,0E0],"parents":[2147483647,0,0,1,1,2,2],"right_children":[2,4,6,-1,-1,-1,-1],"split_conditions":[4.595E-1,3.585E-1,8.5E0,1.7889553E-3,-1.8564527E-3,3.817561E-4,3.5642674E-3],"split_indices":[3,55,103,0,0,0,0],"split_type":[0,0,0,0,0,0,0],"sum_hessian":[6.2376562E3,2.3207646E3,3.9168918E3,4.9944107E2,1.8213236E3,1.2028635E3,2.7140283E3],"tree_param":{"num_deleted":"0","num_feature":"106","num_nodes":"7","size_leaf_vector":"0"}},{"base_weights":[-1.2141019E-1,-2.9964867E-1,5.1496543E-2,-2.31991E-1,-5.777076E-1,-9.792397E-2,2.2192867E-1],"categories":[],"categories_nodes":[],"categories_segments":[],"categories_sizes":[],"default_left":[1,1,1,0,0,0,0],"id":44,"left_children":[1,3,5,-1,-1,-1,-1],"loss_changes":[1.9223376E2,5.7646454E1,8.0666245E1,0E0,0E0,0E0,0E0],"parents":[2147483647,0,0,1,1,2,2],"right_children":[2,4,6,-1,-1,-1,-1],"split_conditions":[1.45E1,2.25E1,5.5E-1,-2.3199099E-3,-5.777076E-3,-9.792397E-4,2.2192867E-3],"split_indices":[51,80,77,0,0,0,0],"split_type":[0,0,0,0,0,0,0],"sum_hessian":[6.236081E3,3.0703354E3,3.1657454E3,2.4709377E3,5.9939777E2,1.6870807E3,1.4786647E3],"tree_param":{"num_deleted":"0","num_feature":"106","num_nodes":"7","size_leaf_vector":"0"}},{"base_weights":[1.21410206E-1,2.996487E-1,-5.149653E-2,2.3199101E-1,5.777076E-1,9.792398E-2,-2.2192864E-1],"categories":[],"categories_nodes":[],"categories_segments":[],"categories_sizes":[],"default_left":[1,1,1,0,0,0,0],"id":45,"left_children":[1,3,5,-1,-1,-1,-1],"loss_changes":[1.9223373E2,5.7646454E1,8.0666245E1,0E0,0E0,0E0,0E0],"parents":[2147483647,0,0,1,1,2,2],"right_children":[2,4,6,-1,-1,-1,-1],"split_conditions":[1.45E1,2.25E1,5.5E-1,2.31991E-3,5.777076E-3,9.792398E-4,-2.2192863E-3],"split_indices":[51,80,77,0,0,0,0],"split_type":[0,0,0,0,0,0,0],"sum_hessian":[6.236081E3,3.0703354E3,3.1657454E3,2.4709377E3,5.9939777E2,1.6870807E3,1.4786647E3],"tree_param":{"num_deleted":"0","num_feature":"106","num_nodes":"7","size_leaf_vector":"0"}},{"base_weights":[-1.2022781E-1,-2.127077E-1,2.0925976E-1,-5.4873142E-2,-3.483529E-1,-6.3172415E-2,2.7943438E-1],"categories":[],"categories_nodes":[],"categories_segments":[],"categories_sizes":[],"default_left":[1,1,1,0,0,0,0],"id":46,"left_children":[1,3,5,-1,-1,-1,-1],"loss_changes":[1.9004669E2,1.04232574E2,2.615366E1,0E0,0E0,0E0,0E0],"parents":[2147483647,0,0,1,1,2,2],"right_children":[2,4,6,-1,-1,-1,-1],"split_conditions":[2.35E1,1.15E1,3.595E-1,-5.487314E-4,-3.483529E-3,-6.3172414E-4,2.7943437E-3],"split_indices":[51,80,55,0,0,0,0],"split_type":[0,0,0,0,0,0,0],"sum_hessian":[6.234513E3,4.868412E3,1.3661013E3,2.2508103E3,2.6176016E3,2.7983295E2,1.0862684E3],"tree_param":{"num_deleted":"0","num_feature":"106","num_nodes":"7","size_leaf_vector":"0"}},{"base_weights":[1.2022779E-1,2.1270767E-1,-2.0925972E-1,5.48731E-2,3.4835288E-1,6.3172415E-2,-2.7943435E-1],"categories":[],"categories_nodes":[],"categories_segments":[],"categories_sizes":[],"default_left":[1,1,1,0,0,0,0],"id":47,"left_children":[1,3,5,-1,-1,-1,-1],"loss_changes":[1.9004659E2,1.0423259E2,2.6153652E1,0E0,0E0,0E0,0E0],"parents":[2147483647,0,0,1,1,2,2],"right_children":[2,4,6,-1,-1,-1,-1],"split_conditions":[2.35E1,1.15E1,3.595E-1,5.48731E-4,3.4835287E-3,6.3172414E-4,-2.7943435E-3],"split_indices":[51,80,55,0,0,0,0],"split_type":[0,0,0,0,0,0,0],"sum_hessian":[6.234513E3,4.868412E3,1.3661013E3,2.2508103E3,2.6176016E3,2.7983295E2,1.0862684E3],"tree_param":{"num_deleted":"0","num_feature":"106","num_nodes":"7","size_leaf_vector":"0"}},{"base_weights":[-1.1905711E-1,-2.3166291E-1,1.4694923E-1,-1.4043754E-1,-4.6125844E-1,-1.2091176E-3,2.905346E-1],"categories":[],"categories_nodes":[],"categories_segments":[],"categories_sizes":[],"default_left":[1,1,1,0,0,0,0],"id":48,"left_children":[1,3,5,-1,-1,-1,-1],"loss_changes":[1.8676315E2,9.16785E1,3.9455627E1,0E0,0E0,0E0,0E0],"parents":[2147483647,0,0,1,1,2,2],"right_children":[2,4,6,-1,-1,-1,-1],"split_conditions":[1.95E1,1.95E1,-5E-2,-1.4043754E-3,-4.612584E-3,-1.2091175E-5,2.9053458E-3],"split_indices":[28,80,77,0,0,0,0],"split_type":[0,0,0,0,0,0,0],"sum_hessian":[6.2328916E3,4.3792124E3,1.8536791E3,3.1351375E3,1.244075E3,9.127997E2,9.408794E2],"tree_param":{"num_deleted":"0","num_feature":"106","num_nodes":"7","size_leaf_vector":"0"}},{"base_weights":[1.1905712E-1,2.3166293E-1,-1.4694922E-1,1.4043754E-1,4.612585E-1,1.2091324E-3,-2.905346E-1],"categories":[],"categories_nodes":[],"categories_segments":[],"categories_sizes":[],"default_left":[1,1,1,0,0,0,0],"id":49,"left_children":[1,3,5,-1,-1,-1,-1],"loss_changes":[1.8676314E2,9.167853E1,3.945563E1,0E0,0E0,0E0,0E0],"parents":[2147483647,0,0,1,1,2,2],"right_children":[2,4,6,-1,-1,-1,-1],"split_conditions":[1.95E1,1.95E1,-5E-2,1.4043754E-3,4.612585E-3,1.2091324E-5,-2.9053458E-3],"split_indices":[28,80,77,0,0,0,0],"split_type":[0,0,0,0,0,0,0],"sum_hessian":[6.2328916E3,4.3792124E3,1.8536791E3,3.1351375E3,1.244075E3,9.1279974E2,9.408794E2],"tree_param":{"num_deleted":"0","num_feature":"106","num_nodes":"7","size_leaf_vector":"0"}},{"base_weights":[-1.1789972E-1,-2.9266295E-1,5.151398E-2,-2.2640158E-1,-5.6555736E-1,-1.807244E-1,1.5703951E-1],"categories":[],"categories_nodes":[],"categories_segments":[],"categories_sizes":[],"default_left":[1,1,1,0,0,0,0],"id":50,"left_children":[1,3,5,-1,-1,-1,-1],"loss_changes":[1.8453308E2,5.5345123E1,7.7602455E1,0E0,0E0,0E0,0E0],"parents":[2147483647,0,0,1,1,2,2],"right_children":[2,4,6,-1,-1,-1,-1],"split_conditions":[1.45E1,2.25E1,-2.05E0,-2.2640158E-3,-5.6555737E-3,-1.8072439E-3,1.5703951E-3],"split_indices":[51,80,77,0,0,0,0],"split_type":[0,0,0,0,0,0,0],"sum_hessian":[6.231182E3,3.0668076E3,3.1643745E3,2.469113E3,5.9769464E2,9.884037E2,2.175971E3],"tree_param":{"num_deleted":"0","num_feature":"106","num_nodes":"7","size_leaf_vector":"0"}},{"base_weights":[1.1789973E-1,2.9266295E-1,-5.151398E-2,2.264016E-1,5.6555736E-1,1.8072437E-1,-1.570395E-1],"categories":[],"categories_nodes":[],"categories_segments":[],"categories_sizes":[],"default_left":[1,1,1,0,0,0,0],"id":51,"left_children":[1,3,5,-1,-1,-1,-1],"loss_changes":[1.8453308E2,5.5345154E1,7.760243E1,0E0,0E0,0E0,0E0],"parents":[2147483647,0,0,1,1,2,2],"right_children":[2,4,6,-1,-1,-1,-1],"split_conditions":[1.45E1,2.25E1,-2.05E0,2.2640158E-3,5.6555737E-3,1.8072437E-3,-1.5703948E-3],"split_indices":[51,80,77,0,0,0,0],"split_type":[0,0,0,0,0,0,0],"sum_hessian":[6.231182E3,3.0668076E3,3.1643745E3,2.469113E3,5.9769464E2,9.884037E2,2.175971E3],"tree_param":{"num_deleted":"0","num_feature":"106","num_nodes":"7","size_leaf_vector":"0"}},{"base_weights":[-1.16754815E-1,-2.072672E-1,2.0558113E-1,-5.249161E-2,-3.404485E-1,7.630493E-2,3.4732723E-1],"categories":[],"categories_nodes":[],"categories_segments":[],"categories_sizes":[],"default_left":[1,1,1,0,0,0,0],"id":52,"left_children":[1,3,5,-1,-1,-1,-1],"loss_changes":[1.8181866E2,1.0026532E2,2.5013058E1,0E0,0E0,0E0,0E0],"parents":[2147483647,0,0,1,1,2,2],"right_children":[2,4,6,-1,-1,-1,-1],"split_conditions":[2.35E1,1.15E1,3.5000002E-1,-5.249161E-4,-3.4044848E-3,7.6304923E-4,3.4732723E-3],"split_indices":[51,80,77,0,0,0,0],"split_type":[0,0,0,0,0,0,0],"sum_hessian":[6.2294565E3,4.8639966E3,1.3654601E3,2.2502642E3,2.6137327E3,7.149474E2,6.505127E2],"tree_param":{"num_deleted":"0","num_feature":"106","num_nodes":"7","size_leaf_vector":"0"}},{"base_weights":[1.1675482E-1,2.0726721E-1,-2.0558114E-1,5.2491605E-2,3.4044853E-1,-7.630495E-2,-3.473272E-1],"categories":[],"categories_nodes":[],"categories_segments":[],"categories_sizes":[],"default_left":[1,1,1,0,0,0,0],"id":53,"left_children":[1,3,5,-1,-1,-1,-1],"loss_changes":[1.8181866E2,1.0026535E2,2.5013054E1,0E0,0E0,0E0,0E0],"parents":[2147483647,0,0,1,1,2,2],"right_children":[2,4,6,-1,-1,-1,-1],"split_conditions":[2.35E1,1.15E1,3.5000002E-1,5.2491605E-4,3.4044853E-3,-7.6304947E-4,-3.4732718E-3],"split_indices":[51,80,77,0,0,0,0],"split_type":[0,0,0,0,0,0,0],"sum_hessian":[6.2294565E3,4.8639966E3,1.3654601E3,2.250264E3,2.6137327E3,7.149474E2,6.505127E2],"tree_param":{"num_deleted":"0","num_feature":"106","num_nodes":"7","size_leaf_vector":"0"}},{"base_weights":[-1.1562058E-1,-2.879472E-1,5.133729E-2,-9.0676524E-2,-3.7771875E-1,-1.7739937E-1,1.5525506E-1],"categories":[],"categories_nodes":[],"categories_segments":[],"categories_sizes":[],"default_left":[1,1,1,0,0,0,0],"id":54,"left_children":[1,3,5,-1,-1,-1,-1],"loss_changes":[1.792218E2,5.4248444E1,7.524631E1,0E0,0E0,0E0,0E0],"parents":[2147483647,0,0,1,1,2,2],"right_children":[2,4,6,-1,-1,-1,-1],"split_conditions":[1.45E1,8.5E0,-2.05E0,-9.067652E-4,-3.7771873E-3,-1.7739936E-3,1.5525506E-3],"split_indices":[51,103,77,0,0,0,0],"split_type":[0,0,0,0,0,0,0],"sum_hessian":[6.2276763E3,3.064209E3,3.1634673E3,9.5895026E2,2.1052588E3,9.880133E2,2.175454E3],"tree_param":{"num_deleted":"0","num_feature":"106","num_nodes":"7","size_leaf_vector":"0"}},{"base_weights":[1.15620606E-1,2.8794727E-1,-5.1337305E-2,9.0676636E-2,3.7771875E-1,1.7739937E-1,-1.5525508E-1],"categories":[],"categories_nodes":[],"categories_segments":[],"categories_sizes":[],"default_left":[1,1,1,0,0,0,0],"id":55,"left_children":[1,3,5,-1,-1,-1,-1],"loss_changes":[1.792219E2,5.4248398E1,7.524632E1,0E0,0E0,0E0,0E0],"parents":[2147483647,0,0,1,1,2,2],"right_children":[2,4,6,-1,-1,-1,-1],"split_conditions":[1.45E1,8.5E0,-2.05E0,9.0676633E-4,3.7771873E-3,1.7739936E-3,-1.5525507E-3],"split_indices":[51,103,77,0,0,0,0],"split_type":[0,0,0,0,0,0,0],"sum_hessian":[6.2276763E3,3.064209E3,3.1634673E3,9.5895026E2,2.1052588E3,9.880133E2,2.175454E3],"tree_param":{"num_deleted":"0","num_feature":"106","num_nodes":"7","size_leaf_vector":"0"}},{"base_weights":[-1.1449998E-1,-2.161698E-1,1.6442387E-1,-1.258656E-1,-4.4055557E-1,3.3451233E-2,3.099874E-1],"categories":[],"categories_nodes":[],"categories_segments":[],"categories_sizes":[],"default_left":[1,1,1,0,0,0,0],"id":56,"left_children":[1,3,5,-1,-1,-1,-1],"loss_changes":[1.7661618E2,9.242157E1,3.1712852E1,0E0,0E0,0E0,0E0],"parents":[2147483647,0,0,1,1,2,2],"right_children":[2,4,6,-1,-1,-1,-1],"split_conditions":[2.05E1,1.95E1,5.135E-1,-1.2586559E-3,-4.405556E-3,3.3451233E-4,3.099874E-3],"split_indices":[28,80,55,0,0,0,0],"split_type":[0,0,0,0,0,0,0],"sum_hessian":[6.225807E3,4.5628423E3,1.6629651E3,3.254591E3,1.3082513E3,8.760014E2,7.869637E2],"tree_param":{"num_deleted":"0","num_feature":"106","num_nodes":"7","size_leaf_vector":"0"}},{"base_weights":[1.1449998E-1,2.161698E-1,-1.6442387E-1,1.258656E-1,4.4055563E-1,-3.345129E-2,-3.099873E-1],"categories":[],"categories_nodes":[],"categories_segments":[],"categories_sizes":[],"default_left":[1,1,1,0,0,0,0],"id":57,"left_children":[1,3,5,-1,-1,-1,-1],"loss_changes":[1.7661621E2,9.2421646E1,3.1712822E1,0E0,0E0,0E0,0E0],"parents":[2147483647,0,0,1,1,2,2],"right_children":[2,4,6,-1,-1,-1,-1],"split_conditions":[2.05E1,1.95E1,5.135E-1,1.2586559E-3,4.4055562E-3,-3.3451288E-4,-3.099873E-3],"split_indices":[28,80,55,0,0,0,0],"split_type":[0,0,0,0,0,0,0],"sum_hessian":[6.225807E3,4.5628423E3,1.6629651E3,3.2545908E3,1.3082512E3,8.760014E2,7.869637E2],"tree_param":{"num_deleted":"0","num_feature":"106","num_nodes":"7","size_leaf_vector":"0"}},{"base_weights":[-1.1338933E-1,1.5604621E-1,-2.1712573E-1,-2.6195848E-2,2.6334307E-1,-4.6743215E-3,-3.1002912E-1],"categories":[],"categories_nodes":[],"categories_segments":[],"categories_sizes":[],"default_left":[1,1,1,0,0,0,0],"id":58,"left_children":[1,3,5,-1,-1,-1,-1],"loss_changes":[1.7402325E2,3.3855484E1,8.871701E1,0E0,0E0,0E0,0E0],"parents":[2147483647,0,0,1,1,2,2],"right_children":[2,4,6,-1,-1,-1,-1],"split_conditions":[-2.45E0,-1.3499999E0,8.5E0,-2.6195848E-4,2.6334305E-3,-4.6743215E-5,-3.1002911E-3],"split_indices":[25,77,103,0,0,0,0],"split_type":[0,0,0,0,0,0,0],"sum_hessian":[6.223961E3,1.730031E3,4.4939297E3,6.4139215E2,1.0886388E3,1.3675856E3,3.1263442E3],"tree_param":{"num_deleted":"0","num_feature":"106","num_nodes":"7","size_leaf_vector":"0"}},{"base_weights":[1.1338935E-1,-1.5604618E-1,2.1712576E-1,2.6195845E-2,-2.63343E-1,4.674304E-3,3.1002915E-1],"categories":[],"categories_nodes":[],"categories_segments":[],"categories_sizes":[],"default_left":[1,1,1,0,0,0,0],"id":59,"left_children":[1,3,5,-1,-1,-1,-1],"loss_changes":[1.7402325E2,3.3855476E1,8.871706E1,0E0,0E0,0E0,0E0],"parents":[2147483647,0,0,1,1,2,2],"right_children":[2,4,6,-1,-1,-1,-1],"split_conditions":[-2.45E0,-1.3499999E0,8.5E0,2.6195843E-4,-2.63343E-3,4.6743036E-5,3.1002914E-3],"split_indices":[25,77,103,0,0,0,0],"split_type":[0,0,0,0,0,0,0],"sum_hessian":[6.223961E3,1.730031E3,4.4939297E3,6.4139215E2,1.0886388E3,1.3675856E3,3.1263442E3],"tree_param":{"num_deleted":"0","num_feature":"106","num_nodes":"7","size_leaf_vector":"0"}},{"base_weights":[-1.1229088E-1,-2.8120685E-1,5.122501E-2,-2.1664181E-1,-5.480056E-1,-9.049648E-2,2.1286702E-1],"categories":[],"categories_nodes":[],"categories_segments":[],"categories_sizes":[],"default_left":[1,1,1,0,0,0,0],"id":60,"left_children":[1,3,5,-1,-1,-1,-1],"loss_changes":[1.7189706E2,5.261174E1,7.2475464E1,0E0,0E0,0E0,0E0],"parents":[2147483647,0,0,1,1,2,2],"right_children":[2,4,6,-1,-1,-1,-1],"split_conditions":[1.45E1,2.25E1,5.5E-1,-2.1664181E-3,-5.4800557E-3,-9.049648E-4,2.1286702E-3],"split_indices":[51,80,77,0,0,0,0],"split_type":[0,0,0,0,0,0,0],"sum_hessian":[6.2220225E3,3.0601213E3,3.1619011E3,2.4653267E3,5.9479474E2,1.684999E3,1.4769021E3],"tree_param":{"num_deleted":"0","num_feature":"106","num_nodes":"7","size_leaf_vector":"0"}},{"base_weights":[1.12290874E-1,2.8120685E-1,-5.1225003E-2,2.1664181E-1,5.4800546E-1,9.049648E-2,-2.12867E-1],"categories":[],"categories_nodes":[],"categories_segments":[],"categories_sizes":[],"default_left":[1,1,1,0,0,0,0],"id":61,"left_children":[1,3,5,-1,-1,-1,-1],"loss_changes":[1.7189703E2,5.261171E1,7.247546E1,0E0,0E0,0E0,0E0],"parents":[2147483647,0,0,1,1,2,2],"right_children":[2,4,6,-1,-1,-1,-1],"split_conditions":[1.45E1,2.25E1,5.5E-1,2.1664181E-3,5.4800543E-3,9.049648E-4,-2.12867E-3],"split_indices":[51,80,77,0,0,0,0],"split_type":[0,0,0,0,0,0,0],"sum_hessian":[6.2220225E3,3.0601213E3,3.1619011E3,2.4653267E3,5.947948E2,1.684999E3,1.4769021E3],"tree_param":{"num_deleted":"0","num_feature":"106","num_nodes":"7","size_leaf_vector":"0"}},{"base_weights":[-1.1120407E-1,-1.9865786E-1,1.9998525E-1,-4.8747353E-2,-3.2793304E-1,-5.8401156E-2,2.666269E-1],"categories":[],"categories_nodes":[],"categories_segments":[],"categories_sizes":[],"default_left":[1,1,1,0,0,0,0],"id":62,"left_children":[1,3,5,-1,-1,-1,-1],"loss_changes":[1.693446E2,9.4107635E1,2.3524586E1,0E0,0E0,0E0,0E0],"parents":[2147483647,0,0,1,1,2,2],"right_children":[2,4,6,-1,-1,-1,-1],"split_conditions":[2.35E1,1.15E1,3.595E-1,-4.8747353E-4,-3.2793304E-3,-5.8401155E-4,2.666269E-3],"split_indices":[51,80,55,0,0,0,0],"split_type":[0,0,0,0,0,0,0],"sum_hessian":[6.220086E3,4.855814E3,1.3642716E3,2.249092E3,2.606722E3,2.7974673E2,1.0845248E3],"tree_param":{"num_deleted":"0","num_feature":"106","num_nodes":"7","size_leaf_vector":"0"}},{"base_weights":[1.1120409E-1,1.9865787E-1,-1.9998528E-1,4.8747398E-2,3.2793304E-1,5.8401156E-2,-2.6662692E-1],"categories":[],"categories_nodes":[],"categories_segments":[],"categories_sizes":[],"default_left":[1,1,1,0,0,0,0],"id":63,"left_children":[1,3,5,-1,-1,-1,-1],"loss_changes":[1.6934464E2,9.410762E1,2.3524593E1,0E0,0E0,0E0,0E0],"parents":[2147483647,0,0,1,1,2,2],"right_children":[2,4,6,-1,-1,-1,-1],"split_conditions":[2.35E1,1.15E1,3.595E-1,4.8747397E-4,3.2793304E-3,5.8401155E-4,-2.6662692E-3],"split_indices":[51,80,55,0,0,0,0],"split_type":[0,0,0,0,0,0,0],"sum_hessian":[6.2200854E3,4.855814E3,1.3642716E3,2.249092E3,2.606722E3,2.7974673E2,1.0845248E3],"tree_param":{"num_deleted":"0","num_feature":"106","num_nodes":"7","size_leaf_vector":"0"}},{"base_weights":[-1.10127725E-1,-2.7671042E-1,5.1027443E-2,-2.129754E-1,-5.405367E-1,-1.701926E-1,1.5149662E-1],"categories":[],"categories_nodes":[],"categories_segments":[],"categories_sizes":[],"default_left":[1,1,1,0,0,0,0],"id":64,"left_children":[1,3,5,-1,-1,-1,-1],"loss_changes":[1.6697017E2,5.1308655E1,7.030139E1,0E0,0E0,0E0,0E0],"parents":[2147483647,0,0,1,1,2,2],"right_children":[2,4,6,-1,-1,-1,-1],"split_conditions":[1.45E1,2.25E1,-2.05E0,-2.1297538E-3,-5.405367E-3,-1.701926E-3,1.5149661E-3],"split_indices":[51,80,77,0,0,0,0],"split_type":[0,0,0,0,0,0,0],"sum_hessian":[6.218107E3,3.0572131E3,3.1608938E3,2.4638135E3,5.9339966E2,9.869858E2,2.173908E3],"tree_param":{"num_deleted":"0","num_feature":"106","num_nodes":"7","size_leaf_vector":"0"}},{"base_weights":[1.10127695E-1,2.767104E-1,-5.1027454E-2,2.1297535E-1,5.4053664E-1,1.701926E-1,-1.5149663E-1],"categories":[],"categories_nodes":[],"categories_segments":[],"categories_sizes":[],"default_left":[1,1,1,0,0,0,0],"id":65,"left_children":[1,3,5,-1,-1,-1,-1],"loss_changes":[1.6697012E2,5.130867E1,7.030141E1,0E0,0E0,0E0,0E0],"parents":[2147483647,0,0,1,1,2,2],"right_children":[2,4,6,-1,-1,-1,-1],"split_conditions":[1.45E1,2.25E1,-2.05E0,2.1297536E-3,5.4053664E-3,1.701926E-3,-1.5149663E-3],"split_indices":[51,80,77,0,0,0,0],"split_type":[0,0,0,0,0,0,0],"sum_hessian":[6.218107E3,3.0572131E3,3.1608938E3,2.4638135E3,5.933996E2,9.869858E2,2.173908E3],"tree_param":{"num_deleted":"0","num_feature":"106","num_nodes":"7","size_leaf_vector":"0"}},{"base_weights":[-1.09063774E-1,1.0206669E-1,-2.3449446E-1,-1.6234258E-1,1.7462914E-1,-2.7954355E-2,-3.2648015E-1],"categories":[],"categories_nodes":[],"categories_segments":[],"categories_sizes":[],"default_left":[1,1,1,0,0,0,0],"id":66,"left_children":[1,3,5,-1,-1,-1,-1],"loss_changes":[1.6466606E2,4.4496117E1,7.409317E1,0E0,0E0,0E0,0E0],"parents":[2147483647,0,0,1,1,2,2],"right_children":[2,4,6,-1,-1,-1,-1],"split_conditions":[4.595E-1,3.585E-1,8.5E0,-1.6234257E-3,1.7462913E-3,-2.7954354E-4,-3.2648013E-3],"split_indices":[3,55,103,0,0,0,0],"split_type":[0,0,0,0,0,0,0],"sum_hessian":[6.216077E3,2.316697E3,3.8993801E3,4.9860397E2,1.818093E3,1.2019299E3,2.6974502E3],"tree_param":{"num_deleted":"0","num_feature":"106","num_nodes":"7","size_leaf_vector":"0"}},{"base_weights":[1.090638E-1,-1.0206666E-1,2.3449449E-1,1.6234256E-1,-1.746291E-1,2.7954362E-2,3.2648018E-1],"categories":[],"categories_nodes":[],"categories_segments":[],"categories_sizes":[],"default_left":[1,1,1,0,0,0,0],"id":67,"left_children":[1,3,5,-1,-1,-1,-1],"loss_changes":[1.6466606E2,4.4496105E1,7.4093185E1,0E0,0E0,0E0,0E0],"parents":[2147483647,0,0,1,1,2,2],"right_children":[2,4,6,-1,-1,-1,-1],"split_conditions":[4.595E-1,3.585E-1,8.5E0,1.6234256E-3,-1.7462911E-3,2.7954363E-4,3.2648018E-3],"split_indices":[3,55,103,0,0,0,0],"split_type":[0,0,0,0,0,0,0],"sum_hessian":[6.216077E3,2.316697E3,3.8993801E3,4.9860397E2,1.818093E3,1.2019299E3,2.6974502E3],"tree_param":{"num_deleted":"0","num_feature":"106","num_nodes":"7","size_leaf_vector":"0"}},{"base_weights":[-1.0801054E-1,-1.9366893E-1,1.9662295E-1,-4.6666738E-2,-3.2062054E-1,7.474403E-2,3.3052933E-1],"categories":[],"categories_nodes":[],"categories_segments":[],"categories_sizes":[],"default_left":[1,1,1,0,0,0,0],"id":68,"left_children":[1,3,5,-1,-1,-1,-1],"loss_changes":[1.6221442E2,9.052391E1,2.2244678E1,0E0,0E0,0E0,0E0],"parents":[2147483647,0,0,1,1,2,2],"right_children":[2,4,6,-1,-1,-1,-1],"split_conditions":[2.35E1,1.15E1,3.5000002E-1,-4.6666738E-4,-3.2062053E-3,7.4744027E-4,3.3052932E-3],"split_indices":[51,80,77,0,0,0,0],"split_type":[0,0,0,0,0,0,0],"sum_hessian":[6.213983E3,4.850468E3,1.3635149E3,2.2483657E3,2.602102E3,7.1463055E2,6.4888434E2],"tree_param":{"num_deleted":"0","num_feature":"106","num_nodes":"7","size_leaf_vector":"0"}},{"base_weights":[1.0801053E-1,1.9366892E-1,-1.9662295E-1,4.666673E-2,3.2062054E-1,-7.474404E-2,-3.305293E-1],"categories":[],"categories_nodes":[],"categories_segments":[],"categories_sizes":[],"default_left":[1,1,1,0,0,0,0],"id":69,"left_children":[1,3,5,-1,-1,-1,-1],"loss_changes":[1.6221439E2,9.052391E1,2.224467E1,0E0,0E0,0E0,0E0],"parents":[2147483647,0,0,1,1,2,2],"right_children":[2,4,6,-1,-1,-1,-1],"split_conditions":[2.35E1,1.15E1,3.5000002E-1,4.666673E-4,3.2062053E-3,-7.474404E-4,-3.305293E-3],"split_indices":[51,80,77,0,0,0,0],"split_type":[0,0,0,0,0,0,0],"sum_hessian":[6.2139824E3,4.850468E3,1.3635149E3,2.2483657E3,2.602102E3,7.1463055E2,6.4888434E2],"tree_param":{"num_deleted":"0","num_feature":"106","num_nodes":"7","size_leaf_vector":"0"}},{"base_weights":[-1.06966995E-1,-2.702279E-1,5.082281E-2,-2.0748612E-1,-5.305636E-1,-8.633313E-2,2.0725708E-1],"categories":[],"categories_nodes":[],"categories_segments":[],"categories_sizes":[],"default_left":[1,1,1,0,0,0,0],"id":70,"left_children":[1,3,5,-1,-1,-1,-1],"loss_changes":[1.6006305E2,4.9768173E1,6.7823166E1,0E0,0E0,0E0,0E0],"parents":[2147483647,0,0,1,1,2,2],"right_children":[2,4,6,-1,-1,-1,-1],"split_conditions":[1.45E1,2.25E1,5.5E-1,-2.0748612E-3,-5.3056357E-3,-8.633313E-4,2.0725706E-3],"split_indices":[51,80,77,0,0,0,0],"split_type":[0,0,0,0,0,0,0],"sum_hessian":[6.211876E3,3.0526584E3,3.1592173E3,2.4612788E3,5.9137964E2,1.6835709E3,1.4756464E3],"tree_param":{"num_deleted":"0","num_feature":"106","num_nodes":"7","size_leaf_vector":"0"}},{"base_weights":[1.06966965E-1,2.7022785E-1,-5.0822806E-2,2.0748606E-1,5.3056353E-1,8.6333126E-2,-2.0725706E-1],"categories":[],"categories_nodes":[],"categories_segments":[],"categories_sizes":[],"default_left":[1,1,1,0,0,0,0],"id":71,"left_children":[1,3,5,-1,-1,-1,-1],"loss_changes":[1.6006302E2,4.9768127E1,6.782316E1,0E0,0E0,0E0,0E0],"parents":[2147483647,0,0,1,1,2,2],"right_children":[2,4,6,-1,-1,-1,-1],"split_conditions":[1.45E1,2.25E1,5.5E-1,2.0748605E-3,5.3056353E-3,8.6333125E-4,-2.0725706E-3],"split_indices":[51,80,77,0,0,0,0],"split_type":[0,0,0,0,0,0,0],"sum_hessian":[6.211876E3,3.0526584E3,3.1592173E3,2.4612788E3,5.9137964E2,1.6835709E3,1.4756464E3],"tree_param":{"num_deleted":"0","num_feature":"106","num_nodes":"7","size_leaf_vector":"0"}},{"base_weights":[-1.05935134E-1,-2.0231125E-1,1.5803213E-1,-1.16166994E-1,-4.173707E-1,3.4383193E-2,2.9567719E-1],"categories":[],"categories_nodes":[],"categories_segments":[],"categories_sizes":[],"default_left":[1,1,1,0,0,0,0],"id":72,"left_children":[1,3,5,-1,-1,-1,-1],"loss_changes":[1.5803424E2,8.424695E1,2.8270813E1,0E0,0E0,0E0,0E0],"parents":[2147483647,0,0,1,1,2,2],"right_children":[2,4,6,-1,-1,-1,-1],"split_conditions":[2.05E1,1.95E1,5.135E-1,-1.16167E-3,-4.1737068E-3,3.4383193E-4,2.9567718E-3],"split_indices":[28,80,55,0,0,0,0],"split_type":[0,0,0,0,0,0,0],"sum_hessian":[6.2097466E3,4.5490815E3,1.6606649E3,3.249144E3,1.2999377E3,8.754673E2,7.8519763E2],"tree_param":{"num_deleted":"0","num_feature":"106","num_nodes":"7","size_leaf_vector":"0"}},{"base_weights":[1.05935104E-1,2.0231123E-1,-1.5803218E-1,1.1616696E-1,4.173707E-1,-3.438321E-2,-2.9567727E-1],"categories":[],"categories_nodes":[],"categories_segments":[],"categories_sizes":[],"default_left":[1,1,1,0,0,0,0],"id":73,"left_children":[1,3,5,-1,-1,-1,-1],"loss_changes":[1.5803424E2,8.424701E1,2.827082E1,0E0,0E0,0E0,0E0],"parents":[2147483647,0,0,1,1,2,2],"right_children":[2,4,6,-1,-1,-1,-1],"split_conditions":[2.05E1,1.95E1,5.135E-1,1.1616695E-3,4.1737068E-3,-3.438321E-4,-2.9567727E-3],"split_indices":[28,80,55,0,0,0,0],"split_type":[0,0,0,0,0,0,0],"sum_hessian":[6.2097466E3,4.549082E3,1.6606649E3,3.249144E3,1.2999376E3,8.754673E2,7.8519763E2],"tree_param":{"num_deleted":"0","num_feature":"106","num_nodes":"7","size_leaf_vector":"0"}},{"base_weights":[-1.04912825E-1,-2.6584566E-1,5.051779E-2,-3.273474E-1,-2.989723E-3,-1.6364332E-1,1.4774755E-1],"categories":[],"categories_nodes":[],"categories_segments":[],"categories_sizes":[],"default_left":[1,1,1,0,0,0,0],"id":74,"left_children":[1,3,5,-1,-1,-1,-1],"loss_changes":[1.553146E2,4.9313126E1,6.580619E1,0E0,0E0,0E0,0E0],"parents":[2147483647,0,0,1,1,2,2],"right_children":[2,4,6,-1,-1,-1,-1],"split_conditions":[1.45E1,5.05E0,-2.05E0,-3.2734738E-3,-2.989723E-5,-1.6364331E-3,1.4774754E-3],"split_indices":[51,77,77,0,0,0,0],"split_type":[0,0,0,0,0,0,0],"sum_hessian":[6.2075967E3,3.0494675E3,3.158129E3,2.471057E3,5.784108E2,9.858918E2,2.172237E3],"tree_param":{"num_deleted":"0","num_feature":"106","num_nodes":"7","size_leaf_vector":"0"}},{"base_weights":[1.0491284E-1,2.658457E-1,-5.0517764E-2,3.273474E-1,2.9897222E-3,1.6364335E-1,-1.4774752E-1],"categories":[],"categories_nodes":[],"categories_segments":[],"categories_sizes":[],"default_left":[1,1,1,0,0,0,0],"id":75,"left_children":[1,3,5,-1,-1,-1,-1],"loss_changes":[1.5531459E2,4.931317E1,6.58062E1,0E0,0E0,0E0,0E0],"parents":[2147483647,0,0,1,1,2,2],"right_children":[2,4,6,-1,-1,-1,-1],"split_conditions":[1.45E1,5.05E0,-2.05E0,3.2734738E-3,2.989722E-5,1.6364334E-3,-1.4774752E-3],"split_indices":[51,77,77,0,0,0,0],"split_type":[0,0,0,0,0,0,0],"sum_hessian":[6.2075967E3,3.0494675E3,3.158129E3,2.4710566E3,5.784108E2,9.858918E2,2.172237E3],"tree_param":{"num_deleted":"0","num_feature":"106","num_nodes":"7","size_leaf_vector":"0"}},{"base_weights":[-1.0390123E-1,-1.8734948E-1,1.9264852E-1,-4.3915235E-2,-3.1146532E-1,-5.2883472E-2,2.56049E-1],"categories":[],"categories_nodes":[],"categories_segments":[],"categories_sizes":[],"default_left":[1,1,1,0,0,0,0],"id":76,"left_children":[1,3,5,-1,-1,-1,-1],"loss_changes":[1.5362354E2,8.6221146E1,2.1237904E1,0E0,0E0,0E0,0E0],"parents":[2147483647,0,0,1,1,2,2],"right_children":[2,4,6,-1,-1,-1,-1],"split_conditions":[2.35E1,1.15E1,3.595E-1,-4.3915233E-4,-3.114653E-3,-5.288347E-4,2.56049E-3],"split_indices":[51,80,55,0,0,0,0],"split_type":[0,0,0,0,0,0,0],"sum_hessian":[6.205416E3,4.8429824E3,1.3624333E3,2.247276E3,2.5957068E3,2.7963867E2,1.0827947E3],"tree_param":{"num_deleted":"0","num_feature":"106","num_nodes":"7","size_leaf_vector":"0"}},{"base_weights":[1.0390124E-1,1.873495E-1,-1.9264852E-1,4.3915242E-2,3.1146532E-1,5.2883398E-2,-2.56049E-1],"categories":[],"categories_nodes":[],"categories_segments":[],"categories_sizes":[],"default_left":[1,1,1,0,0,0,0],"id":77,"left_children":[1,3,5,-1,-1,-1,-1],"loss_changes":[1.5362357E2,8.6221115E1,2.1237896E1,0E0,0E0,0E0,0E0],"parents":[2147483647,0,0,1,1,2,2],"right_children":[2,4,6,-1,-1,-1,-1],"split_conditions":[2.35E1,1.15E1,3.595E-1,4.391524E-4,3.114653E-3,5.2883395E-4,-2.56049E-3],"split_indices":[51,80,55,0,0,0,0],"split_type":[0,0,0,0,0,0,0],"sum_hessian":[6.205416E3,4.8429824E3,1.3624333E3,2.247276E3,2.5957068E3,2.796387E2,1.0827947E3],"tree_param":{"num_deleted":"0","num_feature":"106","num_nodes":"7","size_leaf_vector":"0"}},{"base_weights":[-1.02899715E-1,-2.1490422E-1,1.1481341E-1,5.1156576E-3,-2.9642752E-1,-1.507854E-1,1.8284486E-1],"categories":[],"categories_nodes":[],"categories_segments":[],"categories_sizes":[],"default_left":[1,1,1,0,0,0,0],"id":78,"left_children":[1,3,5,-1,-1,-1,-1],"loss_changes":[1.5131293E2,7.3488144E1,3.8120872E1,0E0,0E0,0E0,0E0],"parents":[2147483647,0,0,1,1,2,2],"right_children":[2,4,6,-1,-1,-1,-1],"split_conditions":[1.85E1,7.5E0,3.585E-1,5.1156574E-5,-2.9642752E-3,-1.507854E-3,1.8284486E-3],"split_indices":[27,103,55,0,0,0,0],"split_type":[0,0,0,0,0,0,0],"sum_hessian":[6.2031914E3,4.0959868E3,2.1072048E3,1.1076184E3,2.9883684E3,4.2943784E2,1.677767E3],"tree_param":{"num_deleted":"0","num_feature":"106","num_nodes":"7","size_leaf_vector":"0"}},{"base_weights":[1.0289973E-1,2.1490423E-1,-1.148134E-1,-5.115612E-3,2.9642752E-1,1.5078534E-1,-1.8284485E-1],"categories":[],"categories_nodes":[],"categories_segments":[],"categories_sizes":[],"default_left":[1,1,1,0,0,0,0],"id":79,"left_children":[1,3,5,-1,-1,-1,-1],"loss_changes":[1.5131294E2,7.3488144E1,3.8120865E1,0E0,0E0,0E0,0E0],"parents":[2147483647,0,0,1,1,2,2],"right_children":[2,4,6,-1,-1,-1,-1],"split_conditions":[1.85E1,7.5E0,3.585E-1,-5.115612E-5,2.9642752E-3,1.5078534E-3,-1.8284484E-3],"split_indices":[27,103,55,0,0,0,0],"split_type":[0,0,0,0,0,0,0],"sum_hessian":[6.2031914E3,4.0959868E3,2.1072048E3,1.1076184E3,2.9883682E3,4.2943784E2,1.677767E3],"tree_param":{"num_deleted":"0","num_feature":"106","num_nodes":"7","size_leaf_vector":"0"}},{"base_weights":[-1.0190776E-1,3.6533967E-2,-2.76047E-1,-1.7986931E-1,1.3365133E-1,-3.567174E-1,-6.4209245E-2],"categories":[],"categories_nodes":[],"categories_segments":[],"categories_sizes":[],"default_left":[1,1,1,0,0,0,0],"id":80,"left_children":[1,3,5,-1,-1,-1,-1],"loss_changes":[1.4952844E2,7.26575E1,4.6920166E1,0E0,0E0,0E0,0E0],"parents":[2147483647,0,0,1,1,2,2],"right_children":[2,4,6,-1,-1,-1,-1],"split_conditions":[9.5E-1,-2.05E0,3.75E0,-1.7986931E-3,1.3365133E-3,-3.567174E-3,-6.4209243E-4],"split_indices":[25,77,77,0,0,0,0],"split_type":[0,0,0,0,0,0,0],"sum_hessian":[6.200988E3,3.4550178E3,2.7459697E3,1.0699758E3,2.3850422E3,1.9881674E3,7.578025E2],"tree_param":{"num_deleted":"0","num_feature":"106","num_nodes":"7","size_leaf_vector":"0"}},{"base_weights":[1.0190777E-1,-3.6533955E-2,2.7604696E-1,1.7986932E-1,-1.3365133E-1,3.5671738E-1,6.420923E-2],"categories":[],"categories_nodes":[],"categories_segments":[],"categories_sizes":[],"default_left":[1,1,1,0,0,0,0],"id":81,"left_children":[1,3,5,-1,-1,-1,-1],"loss_changes":[1.4952844E2,7.26575E1,4.692018E1,0E0,0E0,0E0,0E0],"parents":[2147483647,0,0,1,1,2,2],"right_children":[2,4,6,-1,-1,-1,-1],"split_conditions":[9.5E-1,-2.05E0,3.75E0,1.7986932E-3,-1.3365133E-3,3.5671736E-3,6.420923E-4],"split_indices":[25,77,77,0,0,0,0],"split_type":[0,0,0,0,0,0,0],"sum_hessian":[6.200988E3,3.4550178E3,2.74597E3,1.0699758E3,2.385042E3,1.9881674E3,7.578025E2],"tree_param":{"num_deleted":"0","num_feature":"106","num_nodes":"7","size_leaf_vector":"0"}},{"base_weights":[-1.0092676E-1,-1.8271178E-1,1.8954551E-1,-4.2167455E-2,-3.0452207E-1,7.3821455E-2,3.1694934E-1],"categories":[],"categories_nodes":[],"categories_segments":[],"categories_sizes":[],"default_left":[1,1,1,0,0,0,0],"id":82,"left_children":[1,3,5,-1,-1,-1,-1],"loss_changes":[1.4731711E2,8.2815125E1,2.0065952E1,0E0,0E0,0E0,0E0],"parents":[2147483647,0,0,1,1,2,2],"right_children":[2,4,6,-1,-1,-1,-1],"split_conditions":[2.35E1,1.15E1,3.5000002E-1,-4.2167454E-4,-3.0452206E-3,7.382145E-4,3.1694933E-3],"split_indices":[51,80,77,0,0,0,0],"split_type":[0,0,0,0,0,0,0],"sum_hessian":[6.1987275E3,4.837155E3,1.3615725E3,2.2464985E3,2.5906565E3,7.143186E2,6.4725385E2],"tree_param":{"num_deleted":"0","num_feature":"106","num_nodes":"7","size_leaf_vector":"0"}},{"base_weights":[1.0092677E-1,1.8271178E-1,-1.8954547E-1,4.2167466E-2,3.0452207E-1,-7.3821425E-2,-3.1694925E-1],"categories":[],"categories_nodes":[],"categories_segments":[],"categories_sizes":[],"default_left":[1,1,1,0,0,0,0],"id":83,"left_children":[1,3,5,-1,-1,-1,-1],"loss_changes":[1.4731705E2,8.2815125E1,2.0065937E1,0E0,0E0,0E0,0E0],"parents":[2147483647,0,0,1,1,2,2],"right_children":[2,4,6,-1,-1,-1,-1],"split_conditions":[2.35E1,1.15E1,3.5000002E-1,4.2167466E-4,3.0452206E-3,-7.3821424E-4,-3.1694924E-3],"split_indices":[51,80,77,0,0,0,0],"split_type":[0,0,0,0,0,0,0],"sum_hessian":[6.1987275E3,4.837155E3,1.3615725E3,2.2464985E3,2.5906565E3,7.143186E2,6.472539E2],"tree_param":{"num_deleted":"0","num_feature":"106","num_nodes":"7","size_leaf_vector":"0"}},{"base_weights":[-9.9955335E-2,3.6571022E-2,-2.7181673E-1,-1.7666261E-1,1.3223419E-1,-3.514128E-1,-6.31057E-2],"categories":[],"categories_nodes":[],"categories_segments":[],"categories_sizes":[],"default_left":[1,1,1,0,0,0,0],"id":84,"left_children":[1,3,5,-1,-1,-1,-1],"loss_changes":[1.4542328E2,7.0492966E1,4.555887E1,0E0,0E0,0E0,0E0],"parents":[2147483647,0,0,1,1,2,2],"right_children":[2,4,6,-1,-1,-1,-1],"split_conditions":[9.5E-1,-2.05E0,3.75E0,-1.766626E-3,1.3223419E-3,-3.514128E-3,-6.31057E-4],"split_indices":[25,77,77,0,0,0,0],"split_type":[0,0,0,0,0,0,0],"sum_hessian":[6.196398E3,3.4536292E3,2.742769E3,1.0693025E3,2.3843267E3,1.9850481E3,7.5772095E2],"tree_param":{"num_deleted":"0","num_feature":"106","num_nodes":"7","size_leaf_vector":"0"}},{"base_weights":[9.995534E-2,-3.657102E-2,2.7181673E-1,1.7666262E-1,-1.322342E-1,3.514128E-1,6.3105665E-2],"categories":[],"categories_nodes":[],"categories_segments":[],"categories_sizes":[],"default_left":[1,1,1,0,0,0,0],"id":85,"left_children":[1,3,5,-1,-1,-1,-1],"loss_changes":[1.4542328E2,7.049298E1,4.5558914E1,0E0,0E0,0E0,0E0],"parents":[2147483647,0,0,1,1,2,2],"right_children":[2,4,6,-1,-1,-1,-1],"split_conditions":[9.5E-1,-2.05E0,3.75E0,1.7666263E-3,-1.322342E-3,3.514128E-3,6.310566E-4],"split_indices":[25,77,77,0,0,0,0],"split_type":[0,0,0,0,0,0,0],"sum_hessian":[6.1963984E3,3.4536292E3,2.742769E3,1.0693025E3,2.3843267E3,1.9850481E3,7.5772095E2],"tree_param":{"num_deleted":"0","num_feature":"106","num_nodes":"7","size_leaf_vector":"0"}},{"base_weights":[-9.899421E-2,-1.910669E-1,1.527877E-1,-1.0797937E-1,-3.9935878E-1,3.4964953E-2,2.8413072E-1],"categories":[],"categories_nodes":[],"categories_segments":[],"categories_sizes":[],"default_left":[1,1,1,0,0,0,0],"id":86,"left_children":[1,3,5,-1,-1,-1,-1],"loss_changes":[1.4364482E2,7.8470856E1,2.5669415E1,0E0,0E0,0E0,0E0],"parents":[2147483647,0,0,1,1,2,2],"right_children":[2,4,6,-1,-1,-1,-1],"split_conditions":[2.05E1,1.95E1,5.135E-1,-1.0797937E-3,-3.9935876E-3,3.4964952E-4,2.841307E-3],"split_indices":[28,80,55,0,0,0,0],"split_type":[0,0,0,0,0,0,0],"sum_hessian":[6.1940728E3,4.5356855E3,1.6583877E3,3.2434094E3,1.292276E3,8.748551E2,7.8353253E2],"tree_param":{"num_deleted":"0","num_feature":"106","num_nodes":"7","size_leaf_vector":"0"}},{"base_weights":[9.89942E-2,1.9106689E-1,-1.527877E-1,1.07979365E-1,3.9935875E-1,-3.496494E-2,-2.8413072E-1],"categories":[],"categories_nodes":[],"categories_segments":[],"categories_sizes":[],"default_left":[1,1,1,0,0,0,0],"id":87,"left_children":[1,3,5,-1,-1,-1,-1],"loss_changes":[1.4364482E2,7.8470825E1,2.5669418E1,0E0,0E0,0E0,0E0],"parents":[2147483647,0,0,1,1,2,2],"right_children":[2,4,6,-1,-1,-1,-1],"split_conditions":[2.05E1,1.95E1,5.135E-1,1.0797937E-3,3.9935876E-3,-3.496494E-4,-2.841307E-3],"split_indices":[28,80,55,0,0,0,0],"split_type":[0,0,0,0,0,0,0],"sum_hessian":[6.1940728E3,4.5356855E3,1.6583877E3,3.2434094E3,1.292276E3,8.7485516E2,7.8353253E2],"tree_param":{"num_deleted":"0","num_feature":"106","num_nodes":"7","size_leaf_vector":"0"}},{"base_weights":[-9.804224E-2,3.6513396E-2,-2.675591E-1,-1.7342997E-1,1.3066141E-1,-3.4628868E-1,-6.1417613E-2],"categories":[],"categories_nodes":[],"categories_segments":[],"categories_sizes":[],"default_left":[1,1,1,0,0,0,0],"id":88,"left_children":[1,3,5,-1,-1,-1,-1],"loss_changes":[1.4126231E2,6.8278725E1,4.4455017E1,0E0,0E0,0E0,0E0],"parents":[2147483647,0,0,1,1,2,2],"right_children":[2,4,6,-1,-1,-1,-1],"split_conditions":[9.5E-1,-2.05E0,3.75E0,-1.7342996E-3,1.3066141E-3,-3.4628867E-3,-6.141761E-4],"split_indices":[25,77,77,0,0,0,0],"split_type":[0,0,0,0,0,0,0],"sum_hessian":[6.1917197E3,3.452249E3,2.739471E3,1.0685706E3,2.3836782E3,1.9818739E3,7.575971E2],"tree_param":{"num_deleted":"0","num_feature":"106","num_nodes":"7","size_leaf_vector":"0"}},{"base_weights":[9.804224E-2,-3.6513396E-2,2.675591E-1,1.7342997E-1,-1.3066141E-1,3.4628868E-1,6.141757E-2],"categories":[],"categories_nodes":[],"categories_segments":[],"categories_sizes":[],"default_left":[1,1,1,0,0,0,0],"id":89,"left_children":[1,3,5,-1,-1,-1,-1],"loss_changes":[1.4126233E2,6.8278725E1,4.4455017E1,0E0,0E0,0E0,0E0],"parents":[2147483647,0,0,1,1,2,2],"right_children":[2,4,6,-1,-1,-1,-1],"split_conditions":[9.5E-1,-2.05E0,3.75E0,1.7342996E-3,-1.3066141E-3,3.4628867E-3,6.141757E-4],"split_indices":[25,77,77,0,0,0,0],"split_type":[0,0,0,0,0,0,0],"sum_hessian":[6.1917197E3,3.452249E3,2.739471E3,1.0685706E3,2.3836782E3,1.9818739E3,7.575971E2],"tree_param":{"num_deleted":"0","num_feature":"106","num_nodes":"7","size_leaf_vector":"0"}},{"base_weights":[-9.7100526E-2,-1.7685969E-1,1.8594658E-1,-3.9912283E-2,-2.9581776E-1,2.1943188E-1,-2.3501801E-1],"categories":[],"categories_nodes":[],"categories_segments":[],"categories_sizes":[],"default_left":[1,1,1,0,0,0,0],"id":90,"left_children":[1,3,5,-1,-1,-1,-1],"loss_changes":[1.397834E2,7.867317E1,1.9241577E1,0E0,0E0,0E0,0E0],"parents":[2147483647,0,0,1,1,2,2],"right_children":[2,4,6,-1,-1,-1,-1],"split_conditions":[2.35E1,1.15E1,2.75E1,-3.9912283E-4,-2.9581776E-3,2.1943187E-3,-2.3501802E-3],"split_indices":[51,80,80,0,0,0,0],"split_type":[0,0,0,0,0,0,0],"sum_hessian":[6.189334E3,4.8289663E3,1.3603677E3,2.2453735E3,2.5835928E3,1.260575E3,9.9792656E1],"tree_param":{"num_deleted":"0","num_feature":"106","num_nodes":"7","size_leaf_vector":"0"}},{"base_weights":[9.7100504E-2,1.7685968E-1,-1.8594661E-1,3.9912257E-2,2.9581773E-1,-2.194319E-1,2.3501803E-1],"categories":[],"categories_nodes":[],"categories_segments":[],"categories_sizes":[],"default_left":[1,1,1,0,0,0,0],"id":91,"left_children":[1,3,5,-1,-1,-1,-1],"loss_changes":[1.397834E2,7.867319E1,1.9241577E1,0E0,0E0,0E0,0E0],"parents":[2147483647,0,0,1,1,2,2],"right_children":[2,4,6,-1,-1,-1,-1],"split_conditions":[2.35E1,1.15E1,2.75E1,3.9912257E-4,2.9581774E-3,-2.194319E-3,2.3501802E-3],"split_indices":[51,80,80,0,0,0,0],"split_type":[0,0,0,0,0,0,0],"sum_hessian":[6.189334E3,4.8289663E3,1.3603677E3,2.2453735E3,2.5835928E3,1.260575E3,9.979266E1],"tree_param":{"num_deleted":"0","num_feature":"106","num_nodes":"7","size_leaf_vector":"0"}},{"base_weights":[-9.616716E-2,-2.190875E-1,8.483163E-2,-9.05422E-3,-2.981432E-1,-3.3721916E-2,2.24312E-1],"categories":[],"categories_nodes":[],"categories_segments":[],"categories_sizes":[],"default_left":[1,1,1,0,0,0,0],"id":92,"left_children":[1,3,5,-1,-1,-1,-1],"loss_changes":[1.3769128E2,6.1192932E1,4.1404377E1,0E0,0E0,0E0,0E0],"parents":[2147483647,0,0,1,1,2,2],"right_children":[2,4,6,-1,-1,-1,-1],"split_conditions":[1.65E1,7.5E0,5.5E-1,-9.05422E-5,-2.981432E-3,-3.3721916E-4,2.24312E-3],"split_indices":[27,103,77,0,0,0,0],"split_type":[0,0,0,0,0,0,0],"sum_hessian":[6.1869736E3,3.684522E3,2.5024517E3,1.00789246E3,2.6766294E3,1.3531115E3,1.1493402E3],"tree_param":{"num_deleted":"0","num_feature":"106","num_nodes":"7","size_leaf_vector":"0"}},{"base_weights":[9.616718E-2,2.1908751E-1,-8.4831625E-2,9.0542305E-3,2.981432E-1,3.3721905E-2,-2.2431198E-1],"categories":[],"categories_nodes":[],"categories_segments":[],"categories_sizes":[],"default_left":[1,1,1,0,0,0,0],"id":93,"left_children":[1,3,5,-1,-1,-1,-1],"loss_changes":[1.376913E2,6.1192917E1,4.1404366E1,0E0,0E0,0E0,0E0],"parents":[2147483647,0,0,1,1,2,2],"right_children":[2,4,6,-1,-1,-1,-1],"split_conditions":[1.65E1,7.5E0,5.5E-1,9.05423E-5,2.981432E-3,3.3721904E-4,-2.2431198E-3],"split_indices":[27,103,77,0,0,0,0],"split_type":[0,0,0,0,0,0,0],"sum_hessian":[6.1869736E3,3.684522E3,2.5024517E3,1.00789246E3,2.6766296E3,1.3531115E3,1.1493402E3],"tree_param":{"num_deleted":"0","num_feature":"106","num_nodes":"7","size_leaf_vector":"0"}},{"base_weights":[-9.52434E-2,1.4303848E-1,-1.8736498E-1,-1.5708495E-2,2.3678897E-1,3.3816078E-3,-2.7153814E-1],"categories":[],"categories_nodes":[],"categories_segments":[],"categories_sizes":[],"default_left":[1,1,1,0,0,0,0],"id":94,"left_children":[1,3,5,-1,-1,-1,-1],"loss_changes":[1.3580525E2,2.5679108E1,7.163132E1,0E0,0E0,0E0,0E0],"parents":[2147483647,0,0,1,1,2,2],"right_children":[2,4,6,-1,-1,-1,-1],"split_conditions":[-2.45E0,-1.3499999E0,8.5E0,-1.5708494E-4,2.3678897E-3,3.381608E-5,-2.7153813E-3],"split_indices":[25,77,103,0,0,0,0],"split_type":[0,0,0,0,0,0,0],"sum_hessian":[6.184552E3,1.7241943E3,4.4603574E3,6.4049E2,1.0837043E3,1.3659375E3,3.09442E3],"tree_param":{"num_deleted":"0","num_feature":"106","num_nodes":"7","size_leaf_vector":"0"}},{"base_weights":[9.5243394E-2,-1.4303853E-1,1.87365E-1,1.5708476E-2,-2.3678902E-1,-3.3815706E-3,2.7153814E-1],"categories":[],"categories_nodes":[],"categories_segments":[],"categories_sizes":[],"default_left":[1,1,1,0,0,0,0],"id":95,"left_children":[1,3,5,-1,-1,-1,-1],"loss_changes":[1.358053E2,2.5679111E1,7.16313E1,0E0,0E0,0E0,0E0],"parents":[2147483647,0,0,1,1,2,2],"right_children":[2,4,6,-1,-1,-1,-1],"split_conditions":[-2.45E0,-1.3499999E0,8.5E0,1.5708475E-4,-2.3678902E-3,-3.3815704E-5,2.7153813E-3],"split_indices":[25,77,103,0,0,0,0],"split_type":[0,0,0,0,0,0,0],"sum_hessian":[6.184552E3,1.7241942E3,4.4603574E3,6.404899E2,1.0837043E3,1.3659375E3,3.09442E3],"tree_param":{"num_deleted":"0","num_feature":"106","num_nodes":"7","size_leaf_vector":"0"}},{"base_weights":[-9.432954E-2,3.6856383E-2,-2.5984553E-1,-1.6808116E-1,1.2871058E-1,-3.36393E-1,-6.003125E-2],"categories":[],"categories_nodes":[],"categories_segments":[],"categories_sizes":[],"default_left":[1,1,1,0,0,0,0],"id":96,"left_children":[1,3,5,-1,-1,-1,-1],"loss_changes":[1.3426443E2,6.496775E1,4.1796204E1,0E0,0E0,0E0,0E0],"parents":[2147483647,0,0,1,1,2,2],"right_children":[2,4,6,-1,-1,-1,-1],"split_conditions":[9.5E-1,-2.05E0,3.75E0,-1.6808116E-3,1.2871058E-3,-3.36393E-3,-6.003125E-4],"split_indices":[25,77,77,0,0,0,0],"split_type":[0,0,0,0,0,0,0],"sum_hessian":[6.1820503E3,3.4491077E3,2.7329426E3,1.0672089E3,2.381899E3,1.9754702E3,7.5747235E2],"tree_param":{"num_deleted":"0","num_feature":"106","num_nodes":"7","size_leaf_vector":"0"}},{"base_weights":[9.432956E-2,-3.685638E-2,2.5984558E-1,1.680812E-1,-1.287106E-1,3.36393E-1,6.003136E-2],"categories":[],"categories_nodes":[],"categories_segments":[],"categories_sizes":[],"default_left":[1,1,1,0,0,0,0],"id":97,"left_children":[1,3,5,-1,-1,-1,-1],"loss_changes":[1.3426447E2,6.496777E1,4.1796158E1,0E0,0E0,0E0,0E0],"parents":[2147483647,0,0,1,1,2,2],"right_children":[2,4,6,-1,-1,-1,-1],"split_conditions":[9.5E-1,-2.05E0,3.75E0,1.6808119E-3,-1.287106E-3,3.36393E-3,6.003136E-4],"split_indices":[25,77,77,0,0,0,0],"split_type":[0,0,0,0,0,0,0],"sum_hessian":[6.1820503E3,3.4491077E3,2.7329426E3,1.0672089E3,2.3818987E3,1.9754703E3,7.5747235E2],"tree_param":{"num_deleted":"0","num_feature":"106","num_nodes":"7","size_leaf_vector":"0"}},{"base_weights":[-9.3425095E-2,-1.8888521E-1,1.3076863E-1,-1.0958386E-1,-3.9158264E-1,1.47274E-2,2.5926915E-1],"categories":[],"categories_nodes":[],"categories_segments":[],"categories_sizes":[],"default_left":[1,1,1,0,0,0,0],"id":98,"left_children":[1,3,5,-1,-1,-1,-1],"loss_changes":[1.3229837E2,6.9642426E1,2.7527454E1,0E0,0E0,0E0,0E0],"parents":[2147483647,0,0,1,1,2,2],"right_children":[2,4,6,-1,-1,-1,-1],"split_conditions":[1.95E1,1.95E1,5.135E-1,-1.0958386E-3,-3.9158263E-3,1.47274E-4,2.5926915E-3],"split_indices":[28,80,55,0,0,0,0],"split_type":[0,0,0,0,0,0,0],"sum_hessian":[6.179563E3,4.334234E3,1.845329E3,3.116504E3,1.2177299E3,9.702595E2,8.750694E2],"tree_param":{"num_deleted":"0","num_feature":"106","num_nodes":"7","size_leaf_vector":"0"}},{"base_weights":[9.34251E-2,1.8888523E-1,-1.3076863E-1,1.0958387E-1,3.9158264E-1,-1.4727431E-2,-2.5926912E-1],"categories":[],"categories_nodes":[],"categories_segments":[],"categories_sizes":[],"default_left":[1,1,1,0,0,0,0],"id":99,"left_children":[1,3,5,-1,-1,-1,-1],"loss_changes":[1.322984E2,6.964241E1,2.7527445E1,0E0,0E0,0E0,0E0],"parents":[2147483647,0,0,1,1,2,2],"right_children":[2,4,6,-1,-1,-1,-1],"split_conditions":[1.95E1,1.95E1,5.135E-1,1.0958387E-3,3.9158263E-3,-1.4727432E-4,-2.5926912E-3],"split_indices":[28,80,55,0,0,0,0],"split_type":[0,0,0,0,0,0,0],"sum_hessian":[6.179563E3,4.334234E3,1.845329E3,3.116504E3,1.2177299E3,9.702595E2,8.750694E2],"tree_param":{"num_deleted":"0","num_feature":"106","num_nodes":"7","size_leaf_vector":"0"}},{"base_weights":[-9.252947E-2,3.6714237E-2,-2.5573826E-1,-1.6508894E-1,1.2712613E-1,-3.3146837E-1,-5.8366988E-2],"categories":[],"categories_nodes":[],"categories_segments":[],"categories_sizes":[],"default_left":[1,1,1,0,0,0,0],"id":100,"left_children":[1,3,5,-1,-1,-1,-1],"loss_changes":[1.3032715E2,6.294298E1,4.079167E1,0E0,0E0,0E0,0E0],"parents":[2147483647,0,0,1,1,2,2],"right_children":[2,4,6,-1,-1,-1,-1],"split_conditions":[9.5E-1,-2.05E0,3.75E0,-1.6508893E-3,1.2712613E-3,-3.3146837E-3,-5.8366987E-4],"split_indices":[25,77,77,0,0,0,0],"split_type":[0,0,0,0,0,0,0],"sum_hessian":[6.177039E3,3.447649E3,2.7293901E3,1.0664534E3,2.3811956E3,1.9720481E3,7.5734186E2],"tree_param":{"num_deleted":"0","num_feature":"106","num_nodes":"7","size_leaf_vector":"0"}},{"base_weights":[9.2529476E-2,-3.6714233E-2,2.5573826E-1,1.6508895E-1,-1.2712611E-1,3.3146837E-1,5.8367014E-2],"categories":[],"categories_nodes":[],"categories_segments":[],"categories_sizes":[],"default_left":[1,1,1,0,0,0,0],"id":101,"left_children":[1,3,5,-1,-1,-1,-1],"loss_changes":[1.3032715E2,6.2942993E1,4.079164E1,0E0,0E0,0E0,0E0],"parents":[2147483647,0,0,1,1,2,2],"right_children":[2,4,6,-1,-1,-1,-1],"split_conditions":[9.5E-1,-2.05E0,3.75E0,1.6508895E-3,-1.2712611E-3,3.3146837E-3,5.836701E-4],"split_indices":[25,77,77,0,0,0,0],"split_type":[0,0,0,0,0,0,0],"sum_hessian":[6.177039E3,3.447649E3,2.72939E3,1.0664534E3,2.3811953E3,1.9720481E3,7.573419E2],"tree_param":{"num_deleted":"0","num_feature":"106","num_nodes":"7","size_leaf_vector":"0"}},{"base_weights":[-9.164306E-2,-1.6842806E-1,1.8048973E-1,-3.655497E-2,-2.8336746E-1,2.1305403E-1,-2.2858262E-1],"categories":[],"categories_nodes":[],"categories_segments":[],"categories_sizes":[],"default_left":[1,1,1,0,0,0,0],"id":102,"left_children":[1,3,5,-1,-1,-1,-1],"loss_changes":[1.2907193E2,7.30029E1,1.8158829E1,0E0,0E0,0E0,0E0],"parents":[2147483647,0,0,1,1,2,2],"right_children":[2,4,6,-1,-1,-1,-1],"split_conditions":[2.35E1,1.15E1,2.75E1,-3.655497E-4,-2.8336744E-3,2.1305403E-3,-2.2858263E-3],"split_indices":[51,80,80,0,0,0,0],"split_type":[0,0,0,0,0,0,0],"sum_hessian":[6.174502E3,4.816E3,1.3585017E3,2.2434019E3,2.5725981E3,1.2587758E3,9.972593E1],"tree_param":{"num_deleted":"0","num_feature":"106","num_nodes":"7","size_leaf_vector":"0"}},{"base_weights":[9.164306E-2,1.6842805E-1,-1.8048973E-1,3.6554947E-2,2.8336746E-1,-2.1305403E-1,2.2858264E-1],"categories":[],"categories_nodes":[],"categories_segments":[],"categories_sizes":[],"default_left":[1,1,1,0,0,0,0],"id":103,"left_children":[1,3,5,-1,-1,-1,-1],"loss_changes":[1.2907191E2,7.3002914E1,1.8158825E1,0E0,0E0,0E0,0E0],"parents":[2147483647,0,0,1,1,2,2],"right_children":[2,4,6,-1,-1,-1,-1],"split_conditions":[2.35E1,1.15E1,2.75E1,3.6554947E-4,2.8336744E-3,-2.1305403E-3,2.2858263E-3],"split_indices":[51,80,80,0,0,0,0],"split_type":[0,0,0,0,0,0,0],"sum_hessian":[6.1745015E3,4.816E3,1.3585016E3,2.2434019E3,2.5725981E3,1.2587758E3,9.972594E1],"tree_param":{"num_deleted":"0","num_feature":"106","num_nodes":"7","size_leaf_vector":"0"}},{"base_weights":[-9.076419E-2,-2.3705594E-1,4.9752224E-2,-1.783789E-1,-4.8380727E-1,-7.3938705E-2,1.9078848E-1],"categories":[],"categories_nodes":[],"categories_segments":[],"categories_sizes":[],"default_left":[1,1,1,0,0,0,0],"id":104,"left_children":[1,3,5,-1,-1,-1,-1],"loss_changes":[1.2690666E2,4.3704727E1,5.4956562E1,0E0,0E0,0E0,0E0],"parents":[2147483647,0,0,1,1,2,2],"right_children":[2,4,6,-1,-1,-1,-1],"split_conditions":[1.45E1,2.25E1,5.5E-1,-1.7837889E-3,-4.8380727E-3,-7.3938706E-4,1.9078847E-3],"split_indices":[51,80,77,0,0,0,0],"split_type":[0,0,0,0,0,0,0],"sum_hessian":[6.172012E3,3.0235278E3,3.1484844E3,2.444058E3,5.7946985E2,1.6776423E3,1.470842E3],"tree_param":{"num_deleted":"0","num_feature":"106","num_nodes":"7","size_leaf_vector":"0"}},{"base_weights":[9.0764195E-2,2.3705593E-1,-4.9752213E-2,1.783789E-1,4.8380727E-1,7.39387E-2,-1.9078845E-1],"categories":[],"categories_nodes":[],"categories_segments":[],"categories_sizes":[],"default_left":[1,1,1,0,0,0,0],"id":105,"left_children":[1,3,5,-1,-1,-1,-1],"loss_changes":[1.2690663E2,4.3704758E1,5.495654E1,0E0,0E0,0E0,0E0],"parents":[2147483647,0,0,1,1,2,2],"right_children":[2,4,6,-1,-1,-1,-1],"split_conditions":[1.45E1,2.25E1,5.5E-1,1.7837889E-3,4.8380727E-3,7.3938695E-4,-1.9078845E-3],"split_indices":[51,80,77,0,0,0,0],"split_type":[0,0,0,0,0,0,0],"sum_hessian":[6.172012E3,3.023528E3,3.1484844E3,2.444058E3,5.7946985E2,1.6776423E3,1.470842E3],"tree_param":{"num_deleted":"0","num_feature":"106","num_nodes":"7","size_leaf_vector":"0"}},{"base_weights":[-8.9895315E-2,-1.7621043E-1,1.4554316E-1,-9.755552E-2,-3.747804E-1,3.580731E-2,2.6817933E-1],"categories":[],"categories_nodes":[],"categories_segments":[],"categories_sizes":[],"default_left":[1,1,1,0,0,0,0],"id":106,"left_children":[1,3,5,-1,-1,-1,-1],"loss_changes":[1.25420876E2,7.049019E1,2.2274288E1,0E0,0E0,0E0,0E0],"parents":[2147483647,0,0,1,1,2,2],"right_children":[2,4,6,-1,-1,-1,-1],"split_conditions":[2.05E1,1.95E1,5.135E-1,-9.7555516E-4,-3.7478039E-3,3.580731E-4,2.6817932E-3],"split_indices":[28,80,55,0,0,0,0],"split_type":[0,0,0,0,0,0,0],"sum_hessian":[6.1694487E3,4.514588E3,1.6548611E3,3.234766E3,1.2798217E3,8.7404785E2,7.808132E2],"tree_param":{"num_deleted":"0","num_feature":"106","num_nodes":"7","size_leaf_vector":"0"}},{"base_weights":[8.98953E-2,1.7621042E-1,-1.4554317E-1,9.75555E-2,3.747804E-1,-3.5807326E-2,-2.6817933E-1],"categories":[],"categories_nodes":[],"categories_segments":[],"categories_sizes":[],"default_left":[1,1,1,0,0,0,0],"id":107,"left_children":[1,3,5,-1,-1,-1,-1],"loss_changes":[1.254209E2,7.049017E1,2.2274284E1,0E0,0E0,0E0,0E0],"parents":[2147483647,0,0,1,1,2,2],"right_children":[2,4,6,-1,-1,-1,-1],"split_conditions":[2.05E1,1.95E1,5.135E-1,9.75555E-4,3.7478039E-3,-3.5807324E-4,-2.6817932E-3],"split_indices":[28,80,55,0,0,0,0],"split_type":[0,0,0,0,0,0,0],"sum_hessian":[6.1694487E3,4.514588E3,1.6548611E3,3.234766E3,1.2798217E3,8.7404785E2,7.8081323E2],"tree_param":{"num_deleted":"0","num_feature":"106","num_nodes":"7","size_leaf_vector":"0"}},{"base_weights":[-8.903423E-2,-1.6422085E-1,1.772628E-1,1.9132636E-2,-2.4406327E-1,2.0932953E-1,-2.2540106E-1],"categories":[],"categories_nodes":[],"categories_segments":[],"categories_sizes":[],"default_left":[1,1,1,0,0,0,0],"id":108,"left_children":[1,3,5,-1,-1,-1,-1],"loss_changes":[1.2352217E2,7.042558E1,1.758831E1,0E0,0E0,0E0,0E0],"parents":[2147483647,0,0,1,1,2,2],"right_children":[2,4,6,-1,-1,-1,-1],"split_conditions":[2.35E1,8.5E0,2.75E1,1.9132635E-4,-2.4406328E-3,2.0932953E-3,-2.2540106E-3],"split_indices":[51,103,80,0,0,0,0],"split_type":[0,0,0,0,0,0,0],"sum_hessian":[6.166875E3,4.8093735E3,1.3575013E3,1.4591895E3,3.350184E3,1.2578136E3,9.968772E1],"tree_param":{"num_deleted":"0","num_feature":"106","num_nodes":"7","size_leaf_vector":"0"}},{"base_weights":[8.903421E-2,1.6422084E-1,-1.7726281E-1,-1.9132674E-2,2.4406327E-1,-2.0932956E-1,2.2540115E-1],"categories":[],"categories_nodes":[],"categories_segments":[],"categories_sizes":[],"default_left":[1,1,1,0,0,0,0],"id":109,"left_children":[1,3,5,-1,-1,-1,-1],"loss_changes":[1.2352215E2,7.042563E1,1.7588314E1,0E0,0E0,0E0,0E0],"parents":[2147483647,0,0,1,1,2,2],"right_children":[2,4,6,-1,-1,-1,-1],"split_conditions":[2.35E1,8.5E0,2.75E1,-1.9132673E-4,2.4406328E-3,-2.0932956E-3,2.2540113E-3],"split_indices":[51,103,80,0,0,0,0],"split_type":[0,0,0,0,0,0,0],"sum_hessian":[6.166875E3,4.8093735E3,1.3575013E3,1.4591896E3,3.350184E3,1.2578136E3,9.968771E1],"tree_param":{"num_deleted":"0","num_feature":"106","num_nodes":"7","size_leaf_vector":"0"}},{"base_weights":[-8.8179864E-2,3.7069082E-2,-2.4664937E-1,-1.4204171E-1,1.3310695E-1,-3.049429E-1,-1.286582E-3],"categories":[],"categories_nodes":[],"categories_segments":[],"categories_sizes":[],"default_left":[1,1,1,0,0,0,0],"id":110,"left_children":[1,3,5,-1,-1,-1,-1],"loss_changes":[1.22381065E2,5.9269684E1,3.8930862E1,0E0,0E0,0E0,0E0],"parents":[2147483647,0,0,1,1,2,2],"right_children":[2,4,6,-1,-1,-1,-1],"split_conditions":[9.5E-1,-1.45E0,5.05E0,-1.4204171E-3,1.3310694E-3,-3.049429E-3,-1.2865819E-5],"split_indices":[25,77,77,0,0,0,0],"split_type":[0,0,0,0,0,0,0],"sum_hessian":[6.1644106E3,3.4435283E3,2.7208823E3,1.2017616E3,2.2417666E3,2.1983528E3,5.225295E2],"tree_param":{"num_deleted":"0","num_feature":"106","num_nodes":"7","size_leaf_vector":"0"}},{"base_weights":[8.817985E-2,-3.70691E-2,2.4664935E-1,1.4204173E-1,-1.3310698E-1,3.0494288E-1,1.2865834E-3],"categories":[],"categories_nodes":[],"categories_segments":[],"categories_sizes":[],"default_left":[1,1,1,0,0,0,0],"id":111,"left_children":[1,3,5,-1,-1,-1,-1],"loss_changes":[1.2238108E2,5.9269703E1,3.8930847E1,0E0,0E0,0E0,0E0],"parents":[2147483647,0,0,1,1,2,2],"right_children":[2,4,6,-1,-1,-1,-1],"split_conditions":[9.5E-1,-1.45E0,5.05E0,1.4204172E-3,-1.3310697E-3,3.0494288E-3,1.2865833E-5],"split_indices":[25,77,77,0,0,0,0],"split_type":[0,0,0,0,0,0,0],"sum_hessian":[6.1644106E3,3.4435283E3,2.7208823E3,1.2017616E3,2.2417666E3,2.1983528E3,5.225295E2],"tree_param":{"num_deleted":"0","num_feature":"106","num_nodes":"7","size_leaf_vector":"0"}},{"base_weights":[-8.7335676E-2,-2.0262615E-1,8.1888966E-2,-4.9609416E-3,-2.7751783E-1,-2.8876606E-2,2.1232513E-1],"categories":[],"categories_nodes":[],"categories_segments":[],"categories_sizes":[],"default_left":[1,1,1,0,0,0,0],"id":112,"left_children":[1,3,5,-1,-1,-1,-1],"loss_changes":[1.20253296E2,5.426567E1,3.6096786E1,0E0,0E0,0E0,0E0],"parents":[2147483647,0,0,1,1,2,2],"right_children":[2,4,6,-1,-1,-1,-1],"split_conditions":[1.65E1,7.5E0,5.5E-1,-4.9609414E-5,-2.7751783E-3,-2.8876605E-4,2.1232513E-3],"split_indices":[27,103,77,0,0,0,0],"split_type":[0,0,0,0,0,0,0],"sum_hessian":[6.1618276E3,3.6648306E3,2.496997E3,1.007295E3,2.6575356E3,1.3507378E3,1.1462594E3],"tree_param":{"num_deleted":"0","num_feature":"106","num_nodes":"7","size_leaf_vector":"0"}},{"base_weights":[8.73357E-2,2.0262617E-1,-8.188894E-2,4.9609784E-3,2.7751786E-1,2.887663E-2,-2.123251E-1],"categories":[],"categories_nodes":[],"categories_segments":[],"categories_sizes":[],"default_left":[1,1,1,0,0,0,0],"id":113,"left_children":[1,3,5,-1,-1,-1,-1],"loss_changes":[1.2025328E2,5.426567E1,3.6096783E1,0E0,0E0,0E0,0E0],"parents":[2147483647,0,0,1,1,2,2],"right_children":[2,4,6,-1,-1,-1,-1],"split_conditions":[1.65E1,7.5E0,5.5E-1,4.9609782E-5,2.7751785E-3,2.8876628E-4,-2.1232509E-3],"split_indices":[27,103,77,0,0,0,0],"split_type":[0,0,0,0,0,0,0],"sum_hessian":[6.1618276E3,3.6648306E3,2.4969973E3,1.007295E3,2.6575356E3,1.3507378E3,1.1462594E3],"tree_param":{"num_deleted":"0","num_feature":"106","num_nodes":"7","size_leaf_vector":"0"}},{"base_weights":[-8.649976E-2,2.7935656E-2,-2.5493485E-1,-1.6524285E-1,1.16964065E-1,-3.118949E-1,5.863406E-3],"categories":[],"categories_nodes":[],"categories_segments":[],"categories_sizes":[],"default_left":[1,1,1,0,0,0,0],"id":114,"left_children":[1,3,5,-1,-1,-1,-1],"loss_changes":[1.1874463E2,6.311999E1,3.702385E1,0E0,0E0,0E0,0E0],"parents":[2147483647,0,0,1,1,2,2],"right_children":[2,4,6,-1,-1,-1,-1],"split_conditions":[1.45E0,-1.95E0,5.3500004E0,-1.6524284E-3,1.1696406E-3,-3.1189488E-3,5.863406E-5],"split_indices":[25,77,77,0,0,0,0],"split_type":[0,0,0,0,0,0,0],"sum_hessian":[6.159202E3,3.6679902E3,2.4912122E3,1.1568785E3,2.5111118E3,2.0444867E3,4.4672534E2],"tree_param":{"num_deleted":"0","num_feature":"106","num_nodes":"7","size_leaf_vector":"0"}},{"base_weights":[8.6499766E-2,-2.7935656E-2,2.5493485E-1,1.6524284E-1,-1.1696406E-1,3.1189492E-1,-5.8633764E-3],"categories":[],"categories_nodes":[],"categories_segments":[],"categories_sizes":[],"default_left":[1,1,1,0,0,0,0],"id":115,"left_children":[1,3,5,-1,-1,-1,-1],"loss_changes":[1.1874464E2,6.3119987E1,3.702385E1,0E0,0E0,0E0,0E0],"parents":[2147483647,0,0,1,1,2,2],"right_children":[2,4,6,-1,-1,-1,-1],"split_conditions":[1.45E0,-1.95E0,5.3500004E0,1.6524283E-3,-1.1696406E-3,3.1189492E-3,-5.8633763E-5],"split_indices":[25,77,77,0,0,0,0],"split_type":[0,0,0,0,0,0,0],"sum_hessian":[6.159202E3,3.6679902E3,2.4912122E3,1.1568785E3,2.5111118E3,2.0444867E3,4.4672537E2],"tree_param":{"num_deleted":"0","num_feature":"106","num_nodes":"7","size_leaf_vector":"0"}},{"base_weights":[-8.567138E-2,-1.5915206E-1,1.7433453E-1,-3.265371E-2,-2.6985198E-1,2.0573741E-1,-2.1988712E-1],"categories":[],"categories_nodes":[],"categories_segments":[],"categories_sizes":[],"default_left":[1,1,1,0,0,0,0],"id":116,"left_children":[1,3,5,-1,-1,-1,-1],"loss_changes":[1.1767219E2,6.722678E1,1.6847694E1,0E0,0E0,0E0,0E0],"parents":[2147483647,0,0,1,1,2,2],"right_children":[2,4,6,-1,-1,-1,-1],"split_conditions":[2.35E1,1.15E1,2.75E1,-3.2653712E-4,-2.6985197E-3,2.057374E-3,-2.1988712E-3],"split_indices":[51,80,80,0,0,0,0],"split_type":[0,0,0,0,0,0,0],"sum_hessian":[6.1566504E3,4.8003916E3,1.3562584E3,2.2409368E3,2.559455E3,1.2566355E3,9.9622925E1],"tree_param":{"num_deleted":"0","num_feature":"106","num_nodes":"7","size_leaf_vector":"0"}},{"base_weights":[8.567138E-2,1.5915206E-1,-1.7433453E-1,3.26537E-2,2.6985198E-1,-2.0573741E-1,2.1988702E-1],"categories":[],"categories_nodes":[],"categories_segments":[],"categories_sizes":[],"default_left":[1,1,1,0,0,0,0],"id":117,"left_children":[1,3,5,-1,-1,-1,-1],"loss_changes":[1.1767218E2,6.72268E1,1.6847687E1,0E0,0E0,0E0,0E0],"parents":[2147483647,0,0,1,1,2,2],"right_children":[2,4,6,-1,-1,-1,-1],"split_conditions":[2.35E1,1.15E1,2.75E1,3.26537E-4,2.6985197E-3,-2.057374E-3,2.19887E-3],"split_indices":[51,80,80,0,0,0,0],"split_type":[0,0,0,0,0,0,0],"sum_hessian":[6.1566504E3,4.8003916E3,1.3562584E3,2.2409368E3,2.559455E3,1.2566355E3,9.9622925E1],"tree_param":{"num_deleted":"0","num_feature":"106","num_nodes":"7","size_leaf_vector":"0"}},{"base_weights":[-8.4851496E-2,-1.6788693E-1,1.4129135E-1,-1.0732997E-1,-4.1439927E-1,2.7731916E-1,4.5754164E-2],"categories":[],"categories_nodes":[],"categories_segments":[],"categories_sizes":[],"default_left":[1,1,1,0,0,0,0],"id":118,"left_children":[1,3,5,-1,-1,-1,-1],"loss_changes":[1.1560235E2,6.716829E1,2.1476917E1,0E0,0E0,0E0,0E0],"parents":[2147483647,0,0,1,1,2,2],"right_children":[2,4,6,-1,-1,-1,-1],"split_conditions":[2.05E1,2.25E1,-6.25E0,-1.0732997E-3,-4.1439924E-3,2.7731915E-3,4.5754164E-4],"split_indices":[28,80,25,0,0,0,0],"split_type":[0,0,0,0,0,0,0],"sum_hessian":[6.1540444E3,4.5014526E3,1.6525919E3,3.614876E3,8.8657666E2,6.810278E2,9.7156415E2],"tree_param":{"num_deleted":"0","num_feature":"106","num_nodes":"7","size_leaf_vector":"0"}},{"base_weights":[8.4851496E-2,1.6788693E-1,-1.4129134E-1,1.0732997E-1,4.1439927E-1,-2.7731916E-1,-4.575415E-2],"categories":[],"categories_nodes":[],"categories_segments":[],"categories_sizes":[],"default_left":[1,1,1,0,0,0,0],"id":119,"left_children":[1,3,5,-1,-1,-1,-1],"loss_changes":[1.1560235E2,6.716829E1,2.1476921E1,0E0,0E0,0E0,0E0],"parents":[2147483647,0,0,1,1,2,2],"right_children":[2,4,6,-1,-1,-1,-1],"split_conditions":[2.05E1,2.25E1,-6.25E0,1.0732997E-3,4.1439924E-3,-2.7731915E-3,-4.575415E-4],"split_indices":[28,80,25,0,0,0,0],"split_type":[0,0,0,0,0,0,0],"sum_hessian":[6.1540444E3,4.5014526E3,1.6525919E3,3.614876E3,8.8657666E2,6.810278E2,9.7156415E2],"tree_param":{"num_deleted":"0","num_feature":"106","num_nodes":"7","size_leaf_vector":"0"}},{"base_weights":[-8.4036894E-2,2.836284E-2,-2.4967813E-1,-1.6158491E-1,1.15830734E-1,-3.0591053E-1,7.2175357E-3],"categories":[],"categories_nodes":[],"categories_segments":[],"categories_sizes":[],"default_left":[1,1,1,0,0,0,0],"id":120,"left_children":[1,3,5,-1,-1,-1,-1],"loss_changes":[1.1455675E2,6.0931576E1,3.5933914E1,0E0,0E0,0E0,0E0],"parents":[2147483647,0,0,1,1,2,2],"right_children":[2,4,6,-1,-1,-1,-1],"split_conditions":[1.45E0,-1.95E0,5.3500004E0,-1.6158491E-3,1.1583073E-3,-3.0591052E-3,7.217535E-5],"split_indices":[25,77,77,0,0,0,0],"split_type":[0,0,0,0,0,0,0],"sum_hessian":[6.1516196E3,3.6652842E3,2.4863354E3,1.1553802E3,2.5099038E3,2.0396759E3,4.4665955E2],"tree_param":{"num_deleted":"0","num_feature":"106","num_nodes":"7","size_leaf_vector":"0"}},{"base_weights":[8.40369E-2,-2.8362842E-2,2.4967815E-1,1.6158491E-1,-1.15830734E-1,3.0591056E-1,-7.217452E-3],"categories":[],"categories_nodes":[],"categories_segments":[],"categories_sizes":[],"default_left":[1,1,1,0,0,0,0],"id":121,"left_children":[1,3,5,-1,-1,-1,-1],"loss_changes":[1.1455676E2,6.0931576E1,3.59339E1,0E0,0E0,0E0,0E0],"parents":[2147483647,0,0,1,1,2,2],"right_children":[2,4,6,-1,-1,-1,-1],"split_conditions":[1.45E0,-1.95E0,5.3500004E0,1.6158491E-3,-1.1583073E-3,3.0591055E-3,-7.217452E-5],"split_indices":[25,77,77,0,0,0,0],"split_type":[0,0,0,0,0,0,0],"sum_hessian":[6.1516196E3,3.6652842E3,2.4863354E3,1.1553802E3,2.5099038E3,2.0396759E3,4.4665955E2],"tree_param":{"num_deleted":"0","num_feature":"106","num_nodes":"7","size_leaf_vector":"0"}},{"base_weights":[-8.323278E-2,1.3402902E-1,-1.6754521E-1,2.9167486E-2,2.5091565E-1,-3.5011542E-1,-9.1328345E-2],"categories":[],"categories_nodes":[],"categories_segments":[],"categories_sizes":[],"default_left":[1,1,1,0,0,0,0],"id":122,"left_children":[1,3,5,-1,-1,-1,-1],"loss_changes":[1.1267778E2,2.1073887E1,6.1626152E1,0E0,0E0,0E0,0E0],"parents":[2147483647,0,0,1,1,2,2],"right_children":[2,4,6,-1,-1,-1,-1],"split_conditions":[-2.45E0,3.5000002E-1,-1.95E0,2.9167486E-4,2.5091565E-3,-3.501154E-3,-9.1328344E-4],"split_indices":[25,77,77,0,0,0,0],"split_type":[0,0,0,0,0,0,0],"sum_hessian":[6.149022E3,1.7189445E3,4.4300776E3,9.0673883E2,8.1220557E2,1.3036693E3,3.1264084E3],"tree_param":{"num_deleted":"0","num_feature":"106","num_nodes":"7","size_leaf_vector":"0"}},{"base_weights":[8.3232775E-2,-1.3402903E-1,1.6754521E-1,-2.9167498E-2,-2.5091568E-1,3.5011542E-1,9.1328345E-2],"categories":[],"categories_nodes":[],"categories_segments":[],"categories_sizes":[],"default_left":[1,1,1,0,0,0,0],"id":123,"left_children":[1,3,5,-1,-1,-1,-1],"loss_changes":[1.1267779E2,2.1073887E1,6.1626183E1,0E0,0E0,0E0,0E0],"parents":[2147483647,0,0,1,1,2,2],"right_children":[2,4,6,-1,-1,-1,-1],"split_conditions":[-2.45E0,3.5000002E-1,-1.95E0,-2.9167498E-4,-2.5091567E-3,3.501154E-3,9.1328344E-4],"split_indices":[25,77,77,0,0,0,0],"split_type":[0,0,0,0,0,0,0],"sum_hessian":[6.149022E3,1.7189445E3,4.4300776E3,9.0673883E2,8.1220557E2,1.3036693E3,3.1264084E3],"tree_param":{"num_deleted":"0","num_feature":"106","num_nodes":"7","size_leaf_vector":"0"}},{"base_weights":[-8.2437165E-2,2.836613E-2,-2.4587949E-1,-1.6189404E-1,1.1283663E-1,-3.015547E-1,8.057423E-3],"categories":[],"categories_nodes":[],"categories_segments":[],"categories_sizes":[],"default_left":[1,1,1,0,0,0,0],"id":124,"left_children":[1,3,5,-1,-1,-1,-1],"loss_changes":[1.1133487E2,5.891225E1,3.51185E1,0E0,0E0,0E0,0E0],"parents":[2147483647,0,0,1,1,2,2],"right_children":[2,4,6,-1,-1,-1,-1],"split_conditions":[1.45E0,-2.05E0,5.3500004E0,-1.6189404E-3,1.1283662E-3,-3.015547E-3,8.057423E-5],"split_indices":[25,77,77,0,0,0,0],"split_type":[0,0,0,0,0,0,0],"sum_hessian":[6.1463354E3,3.6635276E3,2.4828079E3,1.1261305E3,2.537397E3,2.0361892E3,4.4661853E2],"tree_param":{"num_deleted":"0","num_feature":"106","num_nodes":"7","size_leaf_vector":"0"}},{"base_weights":[8.243716E-2,-2.8366128E-2,2.4587946E-1,1.6189404E-1,-1.1283663E-1,3.0155468E-1,-8.057392E-3],"categories":[],"categories_nodes":[],"categories_segments":[],"categories_sizes":[],"default_left":[1,1,1,0,0,0,0],"id":125,"left_children":[1,3,5,-1,-1,-1,-1],"loss_changes":[1.1133487E2,5.891225E1,3.5118484E1,0E0,0E0,0E0,0E0],"parents":[2147483647,0,0,1,1,2,2],"right_children":[2,4,6,-1,-1,-1,-1],"split_conditions":[1.45E0,-2.05E0,5.3500004E0,1.6189404E-3,-1.1283662E-3,3.0155468E-3,-8.057392E-5],"split_indices":[25,77,77,0,0,0,0],"split_type":[0,0,0,0,0,0,0],"sum_hessian":[6.1463354E3,3.6635276E3,2.4828079E3,1.1261305E3,2.537397E3,2.0361892E3,4.466186E2],"tree_param":{"num_deleted":"0","num_feature":"106","num_nodes":"7","size_leaf_vector":"0"}},{"base_weights":[-8.1648804E-2,-1.5273498E-1,1.6959792E-1,2.1484565E-2,-2.2898082E-1,2.0029888E-1,-2.1555817E-1],"categories":[],"categories_nodes":[],"categories_segments":[],"categories_sizes":[],"default_left":[1,1,1,0,0,0,0],"id":126,"left_children":[1,3,5,-1,-1,-1,-1],"loss_changes":[1.0977142E2,6.3634308E1,1.6072754E1,0E0,0E0,0E0,0E0],"parents":[2147483647,0,0,1,1,2,2],"right_children":[2,4,6,-1,-1,-1,-1],"split_conditions":[2.35E1,8.5E0,2.75E1,2.1484564E-4,-2.2898081E-3,2.0029887E-3,-2.1555817E-3],"split_indices":[51,103,80,0,0,0,0],"split_type":[0,0,0,0,0,0,0],"sum_hessian":[6.143708E3,4.7891016E3,1.3546063E3,1.4581011E3,3.3310005E3,1.255046E3,9.956029E1],"tree_param":{"num_deleted":"0","num_feature":"106","num_nodes":"7","size_leaf_vector":"0"}},{"base_weights":[8.1648804E-2,1.5273498E-1,-1.6959795E-1,-2.1484569E-2,2.2898082E-1,-2.002989E-1,2.1555819E-1],"categories":[],"categories_nodes":[],"categories_segments":[],"categories_sizes":[],"default_left":[1,1,1,0,0,0,0],"id":127,"left_children":[1,3,5,-1,-1,-1,-1],"loss_changes":[1.0977144E2,6.3634323E1,1.6072758E1,0E0,0E0,0E0,0E0],"parents":[2147483647,0,0,1,1,2,2],"right_children":[2,4,6,-1,-1,-1,-1],"split_conditions":[2.35E1,8.5E0,2.75E1,-2.1484568E-4,2.2898081E-3,-2.002989E-3,2.1555817E-3],"split_indices":[51,103,80,0,0,0,0],"split_type":[0,0,0,0,0,0,0],"sum_hessian":[6.143708E3,4.7891016E3,1.3546062E3,1.4581011E3,3.3310007E3,1.255046E3,9.956029E1],"tree_param":{"num_deleted":"0","num_feature":"106","num_nodes":"7","size_leaf_vector":"0"}},{"base_weights":[-8.086713E-2,2.8453808E-2,-2.4227825E-1,-1.5934603E-1,1.117917E-1,-2.9719993E-1,7.778972E-3],"categories":[],"categories_nodes":[],